<?xml version="1.0"?>
<opencv_storage>
<opencv_ml_svm>
  <format>3</format>
  <svmType>C_SVC</svmType>
  <kernel>
    <type>RBF</type>
    <gamma>1.</gamma></kernel>
  <C>1.</C>
  <term_criteria><epsilon>1.1920928955078125e-07</epsilon>
    <iterations>1000</iterations></term_criteria>
  <var_count>32</var_count>
  <class_count>10</class_count>
  <class_labels type_id="opencv-matrix">
    <rows>10</rows>
    <cols>1</cols>
    <dt>i</dt>
    <data>
      0 1 2 3 4 5 6 7 8 9</data></class_labels>
  <sv_total>1160</sv_total>
  <support_vectors>
    <_>
      2.37412915e-01 3.17211747e-01 3.32697541e-01 5.39681278e-02
      2.94193588e-02 2.98292306e-03 5.02818543e-03 2.12785937e-02
      5.48966229e-02 4.69430722e-02 7.34636486e-02 1.72772035e-01
      2.36690804e-01 1.50591150e-01 1.17872678e-01 1.46769822e-01
      1.85556620e-01 3.18816630e-03 5.23987133e-03 9.16890800e-03
      5.22705428e-02 1.55868500e-01 2.16328666e-01 3.72378349e-01
      2.50600666e-01 9.61020961e-02 1.39575452e-01 1.29005402e-01
      1.21363856e-01 5.51944189e-02 2.90343128e-02 1.79123670e-01</_>
    <_>
      2.94397861e-01 4.29418862e-01 1.93128303e-01 5.10043576e-02
      7.06531573e-03 0. 9.31498129e-03 1.56697743e-02 1.78567749e-02
      3.72078083e-02 9.70607772e-02 1.88841507e-01 2.11171016e-01
      1.53521612e-01 1.94472417e-01 9.98679101e-02 2.82173932e-01
      2.95769237e-03 5.10192069e-04 7.18679628e-04 1.76462773e-02
      9.45973471e-02 2.05936372e-01 3.95459235e-01 2.01974630e-01
      1.52122676e-01 1.30644441e-01 1.37862772e-01 1.26463220e-01
      8.04000348e-02 3.30277719e-02 1.37504324e-01</_>
    <_>
      4.98997271e-01 4.45450157e-01 1.80433150e-02 3.55643383e-03
      1.03210192e-02 6.13241782e-03 3.64149432e-03 1.38572752e-02
      1.18664660e-01 6.09186776e-02 1.28018588e-01 1.68038070e-01
      1.26604199e-01 1.19009584e-01 1.31666020e-01 1.47080064e-01
      2.72724092e-01 1.57156389e-03 2.09983531e-03 5.52376639e-03
      9.68881417e-03 1.10425897e-01 2.02509865e-01 3.95455688e-01
      2.23650739e-01 1.71020940e-01 1.32351935e-01 1.44621864e-01
      1.24582484e-01 7.65681714e-02 6.74724057e-02 5.97313382e-02</_>
    <_>
      3.38101685e-01 4.31489706e-01 1.32777065e-01 5.81095554e-03
      3.77148460e-03 1.66427623e-02 3.47729237e-03 6.79283291e-02
      8.16078857e-02 6.12014085e-02 9.30459946e-02 1.73398361e-01
      1.66444197e-01 1.59306675e-01 1.25023037e-01 1.39972255e-01
      2.69686520e-01 1.04405731e-02 0. 0. 1.54382130e-02 9.91945416e-02
      2.24332049e-01 3.80907685e-01 2.46506706e-01 1.36983901e-01
      9.00539607e-02 1.34534985e-01 1.11021116e-01 6.43851608e-02
      3.75062451e-02 1.79007798e-01</_>
    <_>
      2.49056205e-01 3.29706520e-01 3.19658071e-01 7.82258138e-02
      1.45728542e-02 6.04226778e-04 1.56025856e-03 6.61582779e-03
      2.21873913e-03 5.38466556e-04 7.55347013e-02 2.69815743e-01
      2.86231518e-01 1.84290349e-01 9.76786986e-02 8.36916417e-02
      1.94691375e-01 8.89364106e-04 1.29075418e-03 2.99183233e-03
      2.83109769e-02 1.77871451e-01 2.50917792e-01 3.43036294e-01
      1.59708723e-01 1.81003079e-01 2.63685763e-01 1.36194453e-01
      1.26794100e-01 5.49743585e-02 1.55435363e-03 7.60850012e-02</_>
    <_>
      4.41119909e-01 3.27953637e-01 1.72318369e-01 0. 3.46077885e-03 0.
      0. 5.51466681e-02 1.66057512e-01 8.19292590e-02 2.78913043e-02
      2.01296926e-01 1.83713779e-01 8.28495324e-02 1.77414820e-01
      7.88466632e-02 4.73952025e-01 2.91440599e-02 0. 0. 3.52813769e-03
      7.23899975e-02 1.72324449e-01 2.48661071e-01 3.45508426e-01
      8.25824812e-02 1.04483359e-01 1.31000564e-01 1.04926653e-01
      1.82578079e-02 6.98398203e-02 1.43400759e-01</_>
    <_>
      1.72820628e-01 2.54815012e-01 2.45379820e-01 3.59304063e-02
      7.17552379e-02 0. 7.15103000e-02 1.47788227e-01 1.48978412e-01
      8.80667493e-02 2.98147425e-02 1.13600351e-01 2.55554885e-01
      8.54116008e-02 1.64086983e-01 1.14486046e-01 3.29301327e-01
      5.30398488e-02 0. 4.31270152e-02 9.40365568e-02 6.85863942e-02
      2.25631222e-01 1.86277404e-01 2.86565602e-01 1.51601464e-01
      7.10590854e-02 1.38319477e-01 9.21051875e-02 6.92609176e-02
      5.91104068e-02 1.31977692e-01</_>
    <_>
      2.21017540e-01 1.48793161e-01 3.46720904e-01 4.94549200e-02
      2.27738619e-02 0. 0. 2.11239129e-01 1.90261111e-01 5.06229885e-02
      3.01818680e-02 1.22924544e-01 2.10368067e-01 1.19708955e-01
      1.79922163e-01 9.60100666e-02 5.10635078e-01 0. 0. 0.
      7.32129142e-02 9.20297280e-02 1.86215833e-01 1.37906134e-01
      3.57517570e-01 7.78693184e-02 1.23055771e-01 4.94582690e-02
      1.33934557e-01 7.75934160e-02 4.35222648e-02 1.37048677e-01</_>
    <_>
      1.23792171e-01 3.00486892e-01 3.47609431e-01 8.98132622e-02
      4.97780070e-02 0. 9.68443695e-04 8.75512809e-02 1.58649743e-01
      4.72783633e-02 1.73442185e-01 6.82752430e-02 1.65901497e-01
      2.07981348e-01 6.63295686e-02 1.12141810e-01 3.61292303e-01
      5.09599708e-02 1.07545912e-01 3.93228419e-02 1.46362528e-01
      5.00397198e-02 1.53079957e-01 9.13965702e-02 2.92299658e-01
      2.68421412e-01 2.11018920e-01 1.14013962e-01 5.24726845e-02
      3.16804100e-04 0. 6.14563525e-02</_>
    <_>
      3.21730286e-01 3.31180453e-01 1.90252975e-01 5.98812513e-02
      5.39486594e-02 0. 0. 4.30059582e-02 1.45466462e-01 2.26278678e-02
      2.28681806e-02 4.42031436e-02 1.94984809e-01 1.88199565e-01
      2.47582257e-01 1.34067506e-01 1.65564209e-01 3.18590552e-02
      1.10600388e-03 0. 8.85109082e-02 2.08667576e-01 3.49657536e-01
      1.54634461e-01 2.71910608e-01 1.45803168e-01 2.27132410e-01
      1.09196946e-01 1.89290375e-01 2.70847231e-02 0. 2.95815561e-02</_>
    <_>
      3.24558467e-01 2.59520352e-01 1.70683891e-01 1.29578695e-01
      1.15657687e-01 0. 0. 0. 4.02660400e-01 4.80669811e-02 0.
      5.23096062e-02 1.22136742e-01 1.09132670e-01 1.10724077e-01
      1.54969260e-01 2.67013669e-01 1.06006481e-01 4.32657637e-02
      3.07151508e-02 9.81408581e-02 1.72328398e-01 1.58149868e-01
      1.24379516e-01 1.96724772e-01 3.06266040e-01 3.75370502e-01
      9.40866768e-02 2.75515188e-02 0. 0. 0.</_>
    <_>
      2.36379012e-01 4.35572833e-01 2.61057287e-01 8.14242521e-04
      5.14972198e-04 0. 0. 6.56609759e-02 2.59318650e-01 1.13595583e-01
      1.19028345e-01 9.90134552e-02 1.48784488e-01 6.48239627e-02
      4.56098318e-02 1.49825513e-01 3.40067267e-01 8.09239075e-02
      3.27091286e-04 0. 1.03737913e-01 1.59550607e-01 1.14375010e-01
      2.01017916e-01 7.51062781e-02 3.06786060e-01 3.75671357e-01
      6.80992976e-02 8.63522068e-02 2.83221882e-02 0. 5.96623421e-02</_>
    <_>
      4.19522166e-01 2.03613609e-01 2.33669713e-01 5.08170063e-03
      6.30307430e-03 0. 0. 1.31808117e-01 3.22186828e-01 1.59206495e-01
      1.60568610e-01 0. 9.76312459e-02 9.03836042e-02 4.55657430e-02
      1.24457218e-01 4.96565193e-01 1.10496379e-01 0. 3.35585475e-02
      4.33319109e-03 1.10999085e-01 5.84424213e-02 1.85604751e-01
      2.72252262e-01 3.14710587e-01 1.41146585e-01 2.13484224e-02
      5.67661710e-02 0. 3.70522030e-02 1.56723559e-01</_>
    <_>
      3.38952631e-01 2.30651945e-01 7.72230849e-02 0. 1.11773200e-01
      1.94181234e-03 1.94181234e-03 2.37514824e-01 2.54100949e-01 0. 0.
      1.96597800e-02 1.96455866e-01 1.06301866e-01 1.06703825e-01
      3.16776872e-01 4.46317732e-01 1.06352799e-01 0. 9.44553241e-02
      1.44454658e-01 0. 1.11304954e-01 9.71135721e-02 3.75812918e-01
      1.70699909e-01 3.11617047e-01 1.24279775e-01 1.75890997e-02 0. 0.
      0.</_>
    <_>
      3.70204151e-01 1.42008454e-01 1.43532321e-01 4.70651500e-02
      7.69204944e-02 2.12169513e-02 0. 1.99051917e-01 4.21827555e-01 0.
      0. 5.38050905e-02 5.89155629e-02 7.60909468e-02 2.26316646e-01
      1.63043663e-01 3.51436228e-01 0. 0. 0. 1.12419687e-01
      9.53937247e-02 2.41892412e-01 1.98857546e-01 5.23016036e-01
      1.12709992e-01 1.14089742e-01 4.27890494e-02 5.07265627e-02 0. 0.
      1.56668216e-01</_>
    <_>
      8.87940452e-02 6.67308271e-01 1.40962243e-01 9.90255997e-02
      3.90883768e-03 0. 0. 0. 2.59854376e-01 2.06726804e-01
      1.60211921e-02 1.82812754e-03 1.81502149e-01 7.76527151e-02
      6.65098205e-02 1.89904287e-01 4.31028813e-01 1.58572748e-01
      6.76738322e-02 0. 1.13580465e-01 0. 1.30809426e-01 9.83342230e-02
      3.90428394e-01 2.89117962e-01 1.87303618e-01 4.47140597e-02
      4.22555692e-02 6.21855550e-04 0. 4.55580838e-02</_>
    <_>
      1.49681181e-01 4.12396729e-01 1.97603390e-01 5.07647730e-02
      5.14374077e-02 3.98641601e-02 0. 9.82519686e-02 3.33097011e-01
      7.61608332e-02 0. 6.18697926e-02 2.16415133e-02 1.53928965e-01
      2.19115138e-01 1.34186089e-01 4.01608020e-01 1.77521765e-01
      7.06252009e-02 2.52466630e-02 5.40335923e-02 0. 4.53041382e-02
      2.25660443e-01 4.49708045e-01 2.61572093e-01 7.02051073e-02 0.
      3.97060678e-04 8.87854665e-04 0. 2.17229322e-01</_>
    <_>
      2.54549116e-01 1.66610986e-01 2.42442682e-01 1.49686597e-02
      9.61269364e-02 4.39889804e-02 0. 1.81312338e-01 3.60721767e-01 0.
      0. 2.74695233e-02 5.25933839e-02 2.05673158e-01 1.39246196e-01
      2.14295596e-01 4.05238360e-01 3.42835090e-03 4.66227867e-02
      3.36244702e-02 8.11859220e-02 1.31655335e-01 2.24759623e-01
      7.34848157e-02 2.86825985e-01 1.66187614e-01 2.21731141e-01 0.
      4.47491966e-02 0. 0. 2.80505657e-01</_>
    <_>
      2.72821605e-01 4.59323823e-01 2.39549652e-01 2.65576318e-02
      1.74687244e-03 0. 0. 0. 3.74787003e-01 7.61932954e-02
      8.16668496e-02 5.20979166e-02 1.33619085e-01 4.17809114e-02
      7.54523277e-02 1.64402336e-01 2.88418055e-01 1.04749449e-01 0.
      1.65986210e-01 8.29764679e-02 1.15255445e-01 5.46848252e-02
      1.87929079e-01 1.71994448e-01 3.46068174e-01 2.84614712e-01
      8.84305984e-02 6.19827723e-03 0. 0. 1.02693245e-01</_>
    <_>
      4.53561157e-01 1.41017780e-01 1.80972949e-01 8.48539695e-02
      1.31058440e-01 0. 0. 8.53542611e-03 2.14215979e-01 0. 0.
      5.35077862e-02 1.60287023e-01 1.06250264e-01 2.76424170e-01
      1.89314514e-01 2.51110911e-01 3.26635636e-04 0. 5.72956807e-04
      1.62539899e-01 1.78555354e-01 1.66127190e-01 2.40766823e-01
      3.60906929e-01 1.66908219e-01 1.79550350e-01 5.92714213e-02
      1.03592239e-01 0. 0. 1.29770622e-01</_>
    <_>
      4.96697903e-01 3.41311544e-01 5.29936478e-02 0. 4.04897407e-02 0.
      0. 6.85067773e-02 3.43209893e-01 2.98273619e-02 3.08225136e-02
      2.44925842e-02 1.86575651e-01 9.49765444e-02 1.21983156e-01
      1.68112069e-01 2.01894417e-01 0. 0. 0. 4.17905450e-02
      1.55319840e-01 2.36116692e-01 3.64878148e-01 4.05359566e-01
      8.23875368e-02 1.59045190e-01 5.41237071e-02 1.60410196e-01 0.
      5.93275167e-02 7.93460608e-02</_>
    <_>
      7.40658700e-01 0. 8.71664807e-02 0. 1.16946109e-01 0.
      5.51289245e-02 0. 2.08729118e-01 1.88436463e-01 1.67697728e-01
      8.39770213e-02 1.21948242e-01 6.97118267e-02 4.05621789e-02
      1.18937321e-01 9.69521821e-01 0. 0. 0. 3.04703675e-02 0. 0. 0.
      1.61626935e-01 2.18990549e-01 1.13182850e-01 1.09428480e-01
      1.46682888e-01 6.02224655e-02 1.00900166e-01 8.89655352e-02</_>
    <_>
      3.75255644e-01 2.37217963e-01 1.36197984e-01 1.24599606e-01
      5.27376533e-02 0. 0. 7.39908889e-02 2.91721284e-01 0. 0.
      4.67786975e-02 7.69964159e-02 1.07806399e-01 2.93998778e-01
      1.82698160e-01 1.62021622e-01 0. 0. 3.98055390e-02 1.62778124e-01
      1.78000197e-01 2.89098233e-01 1.68295965e-01 2.37581834e-01
      2.79398322e-01 1.89992189e-01 6.98959231e-02 6.55929223e-02 0. 0.
      1.57538444e-01</_>
    <_>
      2.93944180e-01 1.80992782e-01 1.29083425e-01 6.87196627e-02
      2.06155702e-01 0. 0. 1.21104024e-01 2.82862544e-01 0. 0.
      5.39642200e-02 6.75098151e-02 2.26060838e-01 1.71670228e-01
      1.97932065e-01 2.18469977e-01 0. 3.32238935e-02 4.66398969e-02
      1.16497457e-01 2.62891948e-01 1.90029785e-01 1.32246792e-01
      4.41041529e-01 1.96324810e-01 2.28115737e-01 5.26931733e-02
      4.51344214e-02 0. 0. 3.66900526e-02</_>
    <_>
      4.41445380e-01 0. 5.49285471e-01 0. 9.26519092e-03 0. 0. 0.
      1.13599047e-01 2.34027937e-01 1.03954881e-01 9.35314521e-02
      2.08551124e-01 5.21505587e-02 9.70453322e-02 9.71394852e-02
      4.09722269e-01 1.70040414e-01 5.20010926e-02 0. 7.60986805e-02
      2.32803971e-02 1.25504062e-01 1.43352911e-01 3.05006891e-01
      3.19981635e-01 1.70954764e-01 3.69679704e-02 1.09837703e-01
      1.72770058e-04 1.35531984e-04 5.69426157e-02</_>
    <_>
      5.40771902e-01 2.93596148e-01 9.84231457e-02 0. 1.29240169e-03 0.
      0. 6.59159049e-02 3.28281224e-01 7.96417296e-02 7.51259774e-02
      4.32208143e-02 4.81994711e-02 1.09353840e-01 2.29613125e-01
      8.65636319e-02 2.76964962e-01 3.85859690e-04 2.44039082e-04 0.
      3.45123379e-04 1.23607859e-01 2.81860888e-01 3.16590846e-01
      4.56387430e-01 2.24166200e-01 5.43669388e-02 4.51727211e-02
      4.10591662e-02 2.72430237e-02 7.93811828e-02 7.22231343e-02</_>
    <_>
      1.57570824e-01 5.03757954e-01 2.42909998e-01 4.42683510e-02
      3.34888324e-02 0. 0. 1.80037487e-02 4.14995968e-01 1.79644063e-01
      1.62727141e-03 3.23261283e-02 3.63651849e-02 4.59786728e-02
      1.37741596e-01 1.51320785e-01 3.44529748e-01 2.45727450e-01
      1.06925003e-01 8.00799057e-02 3.69836055e-02 0. 1.03139490e-01
      8.26146081e-02 2.07950994e-01 4.70397830e-01 2.35727653e-01
      9.01128282e-04 2.18555710e-04 0. 0. 8.48032683e-02</_>
    <_>
      2.88888305e-01 3.38539273e-01 2.44700819e-01 2.95131207e-02
      2.67359801e-02 0. 4.88883874e-04 7.11333379e-02 2.65036583e-01
      8.70264973e-03 1.08876079e-02 1.93072557e-02 7.61607513e-02
      1.72075182e-01 3.34877640e-01 1.12952091e-01 2.42833078e-01 0.
      7.45975529e-04 0. 5.11946343e-02 2.00230137e-01 3.02562296e-01
      2.02433631e-01 3.12482059e-01 2.57633150e-01 1.91676572e-01
      2.24461146e-02 5.45768440e-02 0. 0. 1.61185041e-01</_>
    <_>
      3.06242615e-01 3.68710279e-01 1.74168870e-01 0. 6.64176047e-02 0.
      0. 8.44603330e-02 2.20713437e-01 0. 0. 5.66951483e-02
      1.49947390e-01 1.88268960e-01 3.09516460e-01 7.48583376e-02
      2.54764080e-01 4.42437886e-04 0. 2.52346732e-02 2.65837405e-02
      1.76586807e-01 2.61544585e-01 2.54843414e-01 2.94895470e-01
      2.12804362e-01 1.83903933e-01 1.13237374e-01 6.93711340e-02
      2.20429245e-03 1.55234162e-03 1.22030891e-01</_>
    <_>
      1.07608788e-01 5.07085562e-01 3.36495489e-01 4.72480133e-02
      1.56162400e-03 0. 0. 0. 2.83795059e-01 8.58146325e-02
      4.14941013e-02 8.75705108e-02 8.94087180e-02 8.01029727e-02
      1.46490872e-01 1.85322896e-01 2.87993401e-01 1.92925230e-01
      3.37216072e-02 7.05178753e-02 9.75197181e-02 9.92924124e-02
      9.73462164e-02 1.20683290e-01 1.59782842e-01 4.70099062e-01
      2.94473916e-01 0. 4.59365509e-02 0. 4.48599108e-04 2.92588025e-02</_>
    <_>
      1.15493454e-01 4.55760121e-01 3.92461568e-01 8.79458501e-04
      2.22487352e-03 1.24374207e-03 7.86611577e-04 3.11494693e-02
      1.89937830e-01 1.26028225e-01 1.42473042e-01 1.15820162e-01
      1.78094193e-01 1.15336716e-01 2.64528953e-02 1.05856739e-01
      3.15689683e-01 1.94544911e-01 3.62962075e-02 4.87517603e-02
      1.42003521e-01 1.11856811e-01 1.11279398e-01 3.95774208e-02
      1.26346201e-01 2.72573292e-01 3.29932839e-01 1.11863099e-01
      6.90820739e-02 5.60590066e-04 8.08217272e-04 8.88334662e-02</_>
    <_>
      3.49524081e-01 2.92307317e-01 2.77019799e-01 1.31660094e-02
      1.10331401e-02 2.03441060e-03 0. 5.49146906e-02 2.45367065e-01
      6.63620681e-02 3.30858380e-02 0. 1.67063743e-01 1.97577164e-01
      1.28873348e-01 1.61670521e-01 2.36514509e-01 0. 1.24359562e-03
      7.00306008e-03 3.84576172e-02 1.78536043e-01 2.38693163e-01
      2.99551576e-01 3.37667406e-01 1.46783784e-01 1.44691423e-01
      2.91529801e-02 1.30697608e-01 3.69525887e-02 5.98724894e-02
      1.14181481e-01</_>
    <_>
      1.12757914e-01 4.01110798e-01 2.70860821e-01 1.12812281e-01
      9.94104743e-02 1.33310584e-03 1.71408907e-03 0. 1.02876481e-02 0.
      6.68197200e-02 8.34138244e-02 3.23396623e-01 2.35370472e-01
      2.52090514e-01 2.86209062e-02 2.82087624e-01 2.28209738e-02
      5.53966872e-02 2.41833899e-04 5.16709983e-02 1.56482816e-01
      2.53598392e-01 1.77700490e-01 1.94654197e-01 1.97360069e-01
      1.24388672e-01 1.14066534e-01 1.26722053e-01 3.45901959e-02
      8.99814665e-02 1.18236668e-01</_>
    <_>
      1.08942442e-01 3.95821899e-01 4.25820440e-01 6.78623421e-03
      4.88914456e-03 0. 3.30526172e-03 5.44337779e-02 1.13167614e-01
      5.10923751e-02 1.94928482e-01 1.06486745e-01 2.22940058e-01
      9.57430452e-02 1.42074570e-01 7.35669136e-02 3.41056556e-01
      1.40803963e-01 3.28933485e-02 2.11994350e-02 1.18944705e-01
      6.33665174e-02 1.50772199e-01 1.30963042e-01 1.29453793e-01
      2.57707864e-01 2.81728208e-01 1.81816027e-01 9.60390493e-02 0.
      9.99456155e-04 5.22554517e-02</_>
    <_>
      3.22395742e-01 9.85545851e-03 6.62002861e-01 0. 5.74348029e-03 0.
      0. 0. 9.95654091e-02 1.37058094e-01 9.33726281e-02 3.49200331e-02
      1.65265709e-01 2.29226336e-01 1.65659532e-01 7.49319121e-02
      4.76470411e-01 4.50648777e-02 4.82127368e-02 5.58897795e-04
      1.37221359e-03 4.84044366e-02 1.42621383e-01 2.37294689e-01
      4.19650316e-01 9.38399360e-02 7.68326819e-02 5.08578308e-02
      3.44384685e-02 7.31644854e-02 9.06142369e-02 1.60601899e-01</_>
    <_>
      2.64526695e-01 4.81032431e-01 2.27583006e-01 0. 9.95619968e-03
      5.88485040e-04 1.31589256e-03 1.49968686e-02 2.28214830e-01
      1.84816360e-01 1.15942955e-01 6.90137371e-02 5.62518984e-02
      6.73491061e-02 1.68730006e-01 1.09680936e-01 3.61169040e-01
      2.78644692e-02 3.59097868e-02 2.67069750e-02 3.48747410e-02
      1.05973840e-01 1.71066537e-01 2.36434355e-01 2.51252621e-01
      2.66006380e-01 2.29455307e-01 1.38468638e-01 8.96472111e-02
      3.32374795e-04 0. 2.48372667e-02</_>
    <_>
      2.43004352e-01 1.43593803e-01 4.90650207e-01 0. 4.63205809e-03 0.
      0. 1.18118398e-01 1.33800238e-01 1.16324849e-01 9.70396474e-02
      7.04417676e-02 1.08008206e-01 1.26734331e-01 1.86579853e-01
      1.61070868e-01 3.22826982e-01 0. 0. 0. 7.39227002e-03
      1.07317872e-01 3.31755906e-01 2.30706155e-01 2.61361092e-01
      1.79605916e-01 1.24057837e-01 3.65173705e-02 1.18520200e-01
      2.52018999e-02 9.85989869e-02 1.56136528e-01</_>
    <_>
      2.42541619e-02 3.44423532e-01 4.36486214e-01 1.06357373e-01
      8.69684070e-02 0. 6.09991315e-04 8.99904291e-04 4.34033806e-03
      1.36960787e-03 4.94415686e-02 1.78602785e-01 3.55515510e-01
      2.47050554e-01 1.30404368e-01 3.32750827e-02 2.89506257e-01
      8.49860087e-02 6.72323555e-02 0. 3.46228741e-02 1.26559123e-01
      2.39927396e-01 1.57165840e-01 1.84968114e-01 2.31740355e-01
      1.50258929e-01 6.31222352e-02 9.35273319e-02 8.25342610e-02
      1.06792353e-01 8.70562866e-02</_>
    <_>
      1.70124434e-02 4.85484064e-01 3.01138341e-01 1.03691325e-01
      8.08417350e-02 8.58713873e-03 0. 3.24436044e-03 4.06302046e-03
      6.57782715e-04 3.17891082e-03 1.90421477e-01 4.01998430e-01
      2.12751523e-01 1.57941878e-01 2.89866887e-02 3.42567921e-01
      1.39832631e-01 1.12894899e-03 7.37754570e-04 7.25320214e-03
      6.26116246e-02 2.21742883e-01 2.24124804e-01 1.47750154e-01
      1.48769975e-01 1.80091351e-01 6.34624809e-02 1.49539694e-01
      1.14900209e-01 1.12896696e-01 8.25892910e-02</_>
    <_>
      1.43596064e-02 1.54413626e-01 6.96689308e-01 1.08671255e-01
      1.45643465e-02 0. 7.61593040e-03 3.68482689e-03 7.95274600e-03
      4.19839695e-02 1.77795678e-01 3.29665482e-01 3.69610548e-01
      6.93253577e-02 8.74984078e-04 2.79095187e-03 2.16834798e-01
      2.30843902e-01 9.87987369e-02 2.97501404e-02 4.55706045e-02
      9.25395042e-02 1.26867995e-01 1.58794090e-01 7.36886710e-02
      1.49723753e-01 2.92680353e-01 1.63805023e-01 1.77633986e-01
      3.21491994e-02 5.69740608e-02 5.33448607e-02</_>
    <_>
      4.75969911e-03 2.60794371e-01 2.86158562e-01 1.42250836e-01
      3.00647825e-01 2.13638158e-03 2.67296005e-03 5.78903477e-04
      3.24993627e-03 9.47879744e-04 8.25430034e-04 2.17144743e-01
      3.30002040e-01 3.47053379e-01 1.00015312e-01 7.60932278e-04
      1.65138587e-01 1.22809768e-01 1.01755150e-01 2.03513037e-02
      6.87203854e-02 1.51592061e-01 2.19263420e-01 1.50369167e-01
      2.19054401e-01 1.67642683e-01 1.32361427e-01 9.37518552e-02
      1.18544988e-01 6.74362406e-02 1.58194572e-01 4.30137068e-02</_>
    <_>
      5.68245761e-02 3.20702434e-01 5.06760657e-01 1.89054210e-03
      1.11205667e-01 6.68407592e-04 4.22738056e-04 1.52420369e-03
      1.58367641e-02 0. 3.62997092e-02 1.90214306e-01 3.89950693e-01
      1.88995466e-01 1.76904485e-01 1.79825909e-03 3.15382779e-01
      3.70921679e-02 4.07569706e-02 1.32366093e-02 5.31656705e-02
      1.79330811e-01 2.19334066e-01 1.41700655e-01 1.80731237e-01
      1.45729706e-01 1.16851278e-01 1.02333799e-01 2.02551350e-01
      1.12019859e-01 8.60253870e-02 5.37572950e-02</_>
    <_>
      1.14333019e-01 4.83417392e-01 3.80710363e-01 1.88038312e-02
      2.73365458e-03 0. 0. 0. 6.34997664e-03 3.24363746e-02
      2.26943746e-01 2.20041484e-01 4.15497690e-01 6.06796108e-02
      3.39410044e-02 4.10986971e-03 2.63257593e-01 1.71320871e-01
      8.28037336e-02 0. 6.18587211e-02 7.91227371e-02 2.35874400e-01
      1.05761662e-01 1.02840133e-01 1.97785631e-01 2.84270138e-01
      1.10977776e-01 1.61904588e-01 4.62511815e-02 7.54798949e-02
      2.04905383e-02</_>
    <_>
      7.14204162e-02 3.47396970e-01 2.84564078e-01 1.71615973e-01
      1.06085166e-01 2.38353154e-03 1.91932055e-03 1.46141788e-02
      1.60706028e-01 1.94310695e-02 5.94708659e-02 6.86082691e-02
      2.81127810e-01 1.85850173e-01 1.51717201e-01 7.30884299e-02
      4.47197646e-01 1.10590138e-01 2.81664589e-03 5.44291688e-04
      6.92395680e-03 3.52786146e-02 2.48880193e-01 1.47768259e-01
      8.68039012e-01 5.64629585e-02 4.05610353e-02 0. 3.03747202e-03
      9.06469300e-04 7.68635306e-04 3.02243009e-02</_>
    <_>
      1.04981758e-01 4.24847543e-01 4.54393119e-01 3.58658866e-03
      1.21901818e-02 0. 0. 0. 1.23633876e-01 2.44385347e-01
      2.31949225e-01 1.11771330e-01 1.81628034e-01 3.21053825e-02
      3.82354558e-02 3.62912342e-02 2.19128862e-01 2.27561593e-01
      9.42797437e-02 5.91290742e-02 1.47613257e-01 1.17203400e-01
      6.00376651e-02 7.50461817e-02 1.69136614e-01 3.51937234e-01
      3.12138051e-01 9.45734158e-02 5.17709665e-02 0. 4.14500508e-04
      2.00290866e-02</_>
    <_>
      0. 0. 0. 0. 0. 0. 0. 0. 1.36412248e-01 4.34526801e-01
      2.62689710e-01 2.40931008e-02 8.16113651e-02 8.69370066e-04
      1.62307639e-02 4.35664803e-02 4.53687847e-01 2.03349739e-01
      8.75072030e-04 0. 3.16021703e-02 0. 2.01232821e-01 1.09251559e-01
      2.31946647e-01 4.45196062e-01 2.15920359e-01 4.17891629e-02
      2.04743072e-02 1.95205357e-04 1.72096456e-03 4.27572243e-02</_>
    <_>
      2.70388305e-01 2.88461030e-01 2.31528580e-01 1.70483574e-01
      2.61531025e-02 8.16115993e-04 1.33227301e-03 1.08365426e-02
      3.90679359e-01 2.09577158e-02 2.10930519e-02 6.32219538e-02
      1.27186999e-01 1.25609100e-01 1.18498854e-01 1.32752791e-01
      4.83865023e-01 2.38552471e-04 5.40300098e-04 1.11403468e-03
      4.39607576e-02 5.70223145e-02 2.63389915e-01 1.49868846e-01
      7.48866200e-01 6.74938634e-02 6.02593720e-02 2.20982023e-02
      1.09159630e-02 4.91768727e-03 1.32155651e-02 7.22330436e-02</_>
    <_>
      1.08760811e-01 2.94263870e-01 3.61783355e-01 8.30760002e-02
      1.27848312e-01 0. 3.05183628e-03 2.12154128e-02 1.26668736e-01
      9.28130671e-02 2.17735805e-02 1.75453871e-01 2.66356558e-01
      1.12962976e-01 1.00089230e-01 1.03881821e-01 2.29255870e-01
      3.34938653e-02 2.15527462e-03 3.62247080e-02 1.05297923e-01
      2.06902102e-01 2.34029576e-01 1.52640417e-01 2.90300131e-01
      7.02264458e-02 1.13642439e-01 9.78532061e-02 1.96342304e-01
      2.76819840e-02 5.73997274e-02 1.46553650e-01</_>
    <_>
      7.36827776e-02 3.88536125e-01 4.57146376e-01 7.36289518e-03
      6.89712614e-02 0. 1.26250519e-03 3.03748646e-03 1.17964983e-01
      1.51768506e-01 2.52072364e-01 1.58605084e-01 2.07806334e-01
      5.14491275e-02 7.08878448e-04 5.96245751e-02 2.70369947e-01
      1.43880501e-01 6.26851222e-04 9.97586921e-02 1.48141727e-01
      1.32571056e-01 1.53865337e-01 5.07856011e-02 7.56103098e-02
      3.40269685e-01 2.56573379e-01 9.72216427e-02 1.53881431e-01
      7.51928776e-04 5.17801829e-02 2.39113010e-02</_>
    <_>
      5.03304541e-01 3.53551954e-01 2.98273284e-03 2.83947703e-03
      2.63638818e-03 0. 7.45683210e-04 1.33937865e-01 1.17086619e-01
      9.18314978e-02 1.32291570e-01 1.31141677e-01 1.60619214e-01
      9.23271701e-02 1.65329427e-01 1.09372690e-01 5.74059784e-01
      2.17729993e-03 5.50818164e-04 1.60589698e-03 5.89788519e-03
      2.27523618e-03 1.85964227e-01 2.27468356e-01 3.31326544e-01
      1.06431283e-01 6.45125583e-02 8.06197897e-02 1.22101612e-01
      7.16343224e-02 5.91926165e-02 1.64181173e-01</_>
    <_>
      2.17517093e-01 4.90460992e-01 1.96619973e-01 3.51386843e-03
      8.34911093e-02 0. 0. 8.39622784e-03 4.72526439e-02 3.27618346e-02
      1.09711997e-01 1.24678567e-01 2.69005865e-01 2.51817226e-01
      1.14043802e-01 5.07278331e-02 4.68511909e-01 5.32013923e-02 0.
      5.91592514e-04 3.90178598e-02 5.54774031e-02 2.08335191e-01
      1.74864426e-01 3.33074033e-01 9.76671502e-02 1.02120750e-01
      9.66949612e-02 1.62510157e-01 3.34290452e-02 6.50927201e-02
      1.09411083e-01</_>
    <_>
      0. 0. 0. 0. 0. 0. 0. 0. 3.76009345e-02 9.46423486e-02
      3.61535907e-01 1.80334955e-01 1.58610791e-01 8.67972746e-02
      4.90959585e-02 3.13816518e-02 2.49760777e-01 2.43347451e-01
      1.56190270e-03 0. 6.49790792e-03 0. 1.28375590e-01 3.70455265e-01
      1.44727558e-01 3.36382300e-01 2.54870504e-01 4.54243645e-02
      1.33048996e-01 6.33900315e-02 0. 2.21561752e-02</_>
    <_>
      2.11667806e-01 6.03100836e-01 1.09923445e-01 6.06758222e-02
      6.29009912e-03 6.48991857e-03 1.85128616e-03 0. 5.86084612e-02
      6.74553663e-02 1.19055614e-01 9.37181488e-02 2.93243229e-01
      1.59263328e-01 1.20744519e-01 8.79111961e-02 6.26523793e-01
      1.26256910e-03 1.23368972e-03 2.62072822e-03 1.86081789e-02
      1.00059114e-01 2.07212359e-01 4.24791388e-02 2.52361268e-01
      9.28108841e-02 1.06280506e-01 1.10061333e-01 1.93039253e-01
      7.77050033e-02 4.16737981e-02 1.26067832e-01</_>
    <_>
      1.90108612e-01 3.67688328e-01 2.29276136e-01 1.06572703e-01
      6.07404038e-02 0. 1.34608045e-03 4.42674905e-02 1.23845108e-01 0.
      1.83881130e-02 3.83852720e-02 3.82648021e-01 1.47884846e-01
      1.97123587e-01 9.17248800e-02 2.33702779e-01 1.94159597e-02
      9.65056388e-05 0. 1.35474175e-01 1.58327281e-01 2.40730837e-01
      2.12252289e-01 2.91704714e-01 1.54429838e-01 1.37724832e-01
      1.59711987e-01 1.75594032e-01 0. 4.15527262e-04 8.04189369e-02</_>
    <_>
      9.82329488e-01 1.76579915e-02 0. 0. 0. 0. 0. 0. 3.78900543e-02
      1.18449993e-01 1.90207452e-01 2.49340013e-01 1.26785532e-01
      1.40144795e-01 1.33224145e-01 3.95784713e-03 3.85544091e-01
      1.62330627e-01 3.07315011e-02 0. 3.72143462e-02 3.01341694e-02
      1.27690107e-01 2.26354942e-01 3.17002058e-01 2.22530335e-01
      1.83784932e-01 6.88533038e-02 7.18896538e-02 2.20181383e-02
      3.77387851e-02 7.61826709e-02</_>
    <_>
      1.58692345e-01 3.69427413e-01 3.43864471e-01 9.12660360e-02
      2.08611274e-03 0. 1.86587591e-03 3.27972099e-02 3.15082185e-02
      3.97646353e-02 1.21299446e-01 1.12395018e-01 3.17025661e-01
      1.53462172e-01 1.58058107e-01 6.64865598e-02 4.20226574e-01
      2.17524618e-02 0. 6.07436756e-04 3.25850658e-02 9.41599533e-02
      2.07258776e-01 2.23409563e-01 2.47431695e-01 1.46810174e-01
      1.10695943e-01 1.62927464e-01 1.12397015e-01 5.06722257e-02
      5.35086840e-02 1.15556672e-01</_>
    <_>
      1.45547492e-02 0. 9.47381437e-01 2.26984024e-02 1.53633459e-02 0.
      0. 0. 6.21261299e-02 8.61871988e-02 2.65134543e-01 2.13116989e-01
      1.58521280e-01 7.26247504e-02 1.25526294e-01 1.67626459e-02
      2.31664628e-01 2.83061862e-01 1.29440755e-01 9.35818162e-03
      7.74039775e-02 1.77493412e-02 9.66319218e-02 1.54689193e-01
      1.33695439e-01 4.01803315e-01 3.40420842e-01 7.83012956e-02
      2.34545283e-02 9.57494602e-04 2.99372268e-03 1.83732770e-02</_>
    <_>
      3.84157896e-01 2.38713756e-01 1.94182903e-01 8.82240683e-02
      4.21242192e-02 1.12493814e-03 1.81065217e-04 5.12909517e-02
      8.79685059e-02 1.17996219e-03 2.20663007e-03 1.05827354e-01
      2.17220604e-01 1.88778669e-01 2.00367391e-01 1.96450725e-01
      2.57844299e-01 3.21167230e-04 2.72519421e-04 7.78600993e-03
      7.30731860e-02 1.68395534e-01 2.40617797e-01 2.51689315e-01
      3.07301223e-01 1.75750017e-01 1.09821536e-01 7.35195875e-02
      1.85727730e-01 2.03644149e-02 1.77231506e-02 1.09792210e-01</_>
    <_>
      3.18511814e-01 2.74239421e-01 2.76660293e-01 1.95282567e-02
      1.47834271e-02 0. 6.14943041e-04 9.56613794e-02 1.01497091e-01
      4.86203134e-02 1.21311463e-01 1.00709185e-01 2.17629671e-01
      1.71819896e-01 1.49033710e-01 8.93785208e-02 4.05607015e-01
      9.78056225e-04 3.01836844e-04 4.27204790e-03 4.26387265e-02
      6.02679066e-02 2.12701485e-01 2.73232698e-01 2.45422840e-01
      1.49655789e-01 1.36292607e-01 6.73609823e-02 1.12926774e-01
      9.43941027e-02 4.15083356e-02 1.52438462e-01</_>
    <_>
      5.98527230e-02 7.18819916e-01 1.50376916e-01 0. 1.22358138e-02 0.
      0. 5.87135255e-02 9.97992307e-02 1.51803344e-01 2.98089087e-01
      1.32094145e-01 1.33877113e-01 1.24201618e-01 0. 6.01353087e-02
      2.85722136e-01 2.39916354e-01 4.59723845e-02 2.64700619e-03
      1.36088043e-01 1.06462859e-01 5.86225018e-02 1.24568552e-01
      9.76271331e-02 3.90554518e-01 3.08433294e-01 1.08697966e-01
      4.91183624e-02 2.15685315e-04 2.42360658e-03 4.29293253e-02</_>
    <_>
      3.28572839e-01 4.61261570e-01 1.13876484e-01 5.54212660e-04
      2.22576950e-02 3.91887559e-04 0. 7.30848610e-02 1.57271251e-01
      8.84586051e-02 7.87566081e-02 4.77316529e-02 2.23957732e-01
      9.57841277e-02 2.17864230e-01 9.01756659e-02 4.25225765e-01
      1.04505534e-03 2.45427084e-03 2.78177466e-02 5.00288047e-03
      1.12702645e-01 1.83546185e-01 2.42205173e-01 2.87746191e-01
      1.21490382e-01 1.44584149e-01 6.81392550e-02 1.50647596e-01
      5.38188778e-02 6.71433732e-02 1.06430061e-01</_>
    <_>
      3.02599162e-01 3.86503249e-01 2.62332171e-01 5.98959392e-04
      3.59874405e-03 1.52997521e-03 9.50781570e-04 4.18864936e-02
      6.49328381e-02 3.34379375e-02 1.54223204e-01 1.41191706e-01
      2.06933975e-01 1.51212290e-01 1.88555658e-01 5.95122464e-02
      3.27977836e-01 5.53444922e-02 2.16259752e-04 2.08890066e-03
      2.50707194e-02 6.93029836e-02 2.30846658e-01 2.89151907e-01
      1.36003613e-01 1.73252612e-01 1.27111778e-01 1.24473579e-01
      1.76843509e-01 1.10557497e-01 5.39701767e-02 9.77871194e-02</_>
    <_>
      1.51125684e-01 3.77423763e-01 2.53886968e-01 1.18414521e-01
      6.80682585e-02 1.45364122e-03 2.70711211e-03 2.69198287e-02
      9.08046439e-02 8.85687652e-04 1.74198358e-03 1.26201630e-01
      3.01666260e-01 1.25849515e-01 2.09152877e-01 1.43697232e-01
      2.24220812e-01 5.47093116e-02 3.69383080e-04 9.90035385e-02
      1.37586191e-01 1.57413542e-01 1.51985973e-01 1.74711108e-01
      2.74829060e-01 2.70462215e-01 1.82040974e-01 1.31807312e-01
      1.02686726e-01 1.30203983e-03 8.71517463e-04 3.60000171e-02</_>
    <_>
      2.68528461e-01 4.30099130e-01 1.98244035e-01 0. 2.40046959e-02 0.
      2.00667698e-03 7.71166310e-02 8.85321796e-02 4.77093793e-02
      9.61505473e-02 1.00598812e-01 2.04078779e-01 8.93029869e-02
      2.92223841e-01 8.14033151e-02 3.14931720e-01 4.76490594e-02
      3.75685602e-04 2.50947792e-02 4.06261114e-03 8.78600851e-02
      2.99439818e-01 2.20586017e-01 2.64145911e-01 1.10862024e-01
      1.42007291e-01 1.07064672e-01 1.46128610e-01 6.18589111e-02
      4.98362929e-02 1.18096165e-01</_>
    <_>
      6.81541162e-03 3.62764746e-01 5.34502387e-01 6.14729635e-02
      1.64829381e-02 0. 9.97080700e-04 1.69638507e-02 7.86473081e-02
      1.42984390e-01 2.14421868e-01 2.00872257e-01 2.08180591e-01
      1.74617916e-02 8.68093744e-02 5.06222583e-02 2.18148321e-01
      2.49543712e-01 1.21504225e-01 5.61829992e-02 1.09383956e-01
      4.78215367e-02 1.17456354e-01 7.99587667e-02 7.69130141e-02
      4.17075336e-01 3.26319486e-01 5.39010726e-02 1.01126470e-01
      8.11070902e-04 2.31784512e-03 2.15355530e-02</_>
    <_>
      2.52627820e-01 4.76564795e-01 2.17373833e-01 2.98502147e-02
      2.73381337e-03 1.09521160e-03 0. 1.97535511e-02 3.98417152e-02
      1.19431868e-01 1.83715925e-01 1.57930508e-01 1.96482792e-01
      1.15015700e-01 1.52970374e-01 3.46109867e-02 4.33117151e-01
      1.20037884e-01 1.00633060e-03 2.51582637e-03 2.17960197e-02
      1.36451989e-01 1.14307590e-01 1.70767024e-01 1.72642246e-01
      2.14732721e-01 2.24144176e-01 9.05303955e-02 1.82437479e-01
      7.07201436e-02 3.04178335e-02 1.43748811e-02</_>
    <_>
      1.78399920e-01 3.37003976e-01 3.56074423e-01 1.39956339e-03
      1.07161798e-01 2.82665319e-03 3.71910143e-03 1.34138679e-02
      7.76831210e-02 7.77017027e-02 1.55946299e-01 2.16100082e-01
      1.66242778e-01 1.82095647e-01 1.24230146e-01 0. 2.49178350e-01
      1.06954210e-01 5.28384596e-02 1.25917541e-02 2.16252357e-02
      7.52252713e-02 2.53203362e-01 2.28383169e-01 1.94702595e-01
      9.98097137e-02 9.12757888e-02 1.13315292e-01 1.11093052e-01
      1.07209578e-01 1.89396054e-01 9.31978151e-02</_>
    <_>
      1.69314127e-02 5.52649260e-01 3.99939924e-01 0. 1.91889349e-02 0.
      1.12876091e-02 0. 5.36356047e-02 1.91158667e-01 3.14617753e-01
      1.19760685e-01 1.39869466e-01 3.92139256e-02 9.63691548e-02
      4.53745872e-02 3.72764915e-01 1.87879086e-01 4.96665500e-02
      1.68782845e-02 3.55181471e-02 1.20977238e-01 9.43751112e-02
      1.21940494e-01 1.59631982e-01 2.82257676e-01 2.45863393e-01
      6.12434410e-02 1.58757627e-01 6.65673912e-02 7.66300713e-04
      2.49120612e-02</_>
    <_>
      9.99147415e-01 0. 0. 0. 0. 0. 0. 0. 4.52427603e-02 9.60639715e-02
      2.09573165e-01 8.23931023e-02 2.71332473e-01 1.59133643e-01
      1.17133334e-01 1.91273764e-02 8.42678905e-01 0. 0. 2.34731706e-03
      3.41584836e-03 0. 6.36505755e-03 1.45191416e-01 2.89119035e-01
      1.23724245e-01 1.10637493e-01 7.11596459e-02 9.97072533e-02
      5.27028367e-02 1.41079336e-01 1.11870095e-01</_>
    <_>
      5.83938323e-02 5.09706557e-01 3.84988844e-01 2.45247297e-02
      7.39969825e-03 2.81772111e-03 2.36905948e-03 9.79860127e-03
      1.04139999e-01 9.00661275e-02 2.37786382e-01 1.37910575e-01
      2.09542260e-01 1.04332604e-01 7.16940910e-02 4.45278399e-02
      3.00924689e-01 1.95084438e-01 6.00507520e-02 3.02569289e-02
      1.13104440e-01 7.59696737e-02 1.13534398e-01 1.11074537e-01
      1.36315152e-01 2.94176519e-01 2.91767418e-01 1.01370998e-01
      1.20617338e-01 2.25990836e-04 2.66052230e-04 5.52604236e-02</_>
    <_>
      9.94607620e-03 2.61045307e-01 4.62991685e-01 1.92111865e-01
      7.31440634e-02 0. 7.60317605e-04 0. 2.53235619e-03 5.32618240e-02
      1.02474876e-01 2.19736561e-01 3.02815914e-01 2.25344300e-01
      9.38339606e-02 0. 2.97982246e-01 1.29676148e-01 1.73102343e-03
      4.18848135e-02 3.32006551e-02 9.14185271e-02 2.04778403e-01
      1.99327990e-01 1.43824771e-01 1.03204936e-01 1.49412259e-01
      1.56276777e-01 2.41364613e-01 8.11441243e-02 6.36338815e-02
      6.11385070e-02</_>
    <_>
      1.89586163e-01 3.71320784e-01 2.64679611e-01 6.22801967e-02
      8.07937011e-02 3.56675475e-04 1.39899625e-04 3.08427382e-02
      4.19185832e-02 1.38048810e-04 3.51471342e-02 1.94247380e-01
      2.37024456e-01 2.14387536e-01 2.04154208e-01 7.29824901e-02
      2.71755219e-01 2.43876036e-03 1.51921366e-03 3.76444310e-02
      6.38558120e-02 1.92946225e-01 2.36439660e-01 1.93400517e-01
      2.03679085e-01 1.65150702e-01 1.66449010e-01 1.72296137e-01
      2.36436978e-01 1.40037271e-03 2.05296632e-02 3.40579078e-02</_>
    <_>
      6.54365793e-02 4.72703308e-01 4.13646907e-01 9.10431030e-04
      4.09290269e-02 0. 0. 6.37301756e-03 2.46522240e-02 8.67236704e-02
      1.62643760e-01 1.82470456e-01 2.44542032e-01 1.73146561e-01
      9.83132273e-02 2.75079273e-02 3.70072752e-01 1.09360345e-01
      1.43855601e-03 1.07129691e-02 3.24033760e-02 9.08286572e-02
      1.87929511e-01 1.97253659e-01 1.90573215e-01 1.36776254e-01
      2.00713709e-01 1.21102534e-01 1.56693116e-01 5.67205623e-02
      7.16914311e-02 6.57290518e-02</_>
    <_>
      2.14732513e-01 3.61840189e-01 3.66055012e-01 3.33105936e-03
      3.31656709e-02 0. 3.44116311e-03 1.74337216e-02 4.80969287e-02
      5.25149181e-02 7.85282031e-02 1.71207666e-01 2.20228583e-01
      1.59387544e-01 2.27534950e-01 4.25010249e-02 3.15052658e-01
      8.23366120e-02 8.57132778e-04 0. 5.57568809e-03 3.12748879e-01
      1.36979297e-01 1.46449327e-01 1.95410728e-01 6.14367723e-02
      1.46744132e-01 9.62554291e-02 1.75116643e-01 4.88863923e-02
      1.08087689e-01 1.68062091e-01</_>
    <_>
      1.45736299e-02 5.32387555e-01 3.63152087e-01 4.05795909e-02
      9.29961819e-03 0. 4.73598856e-03 3.52705643e-02 4.43903655e-02
      7.53375366e-02 2.92220831e-01 2.00921819e-01 2.06012473e-01
      7.31469542e-02 7.86819533e-02 2.92878728e-02 2.47416645e-01
      1.13544516e-01 4.24057208e-02 6.13334179e-02 7.95589667e-03
      1.08902887e-01 2.04785600e-01 2.13655025e-01 2.40011916e-01
      1.89049274e-01 1.75573647e-01 1.25158593e-01 1.89229950e-01
      1.15538591e-04 1.86383352e-02 6.22226261e-02</_>
    <_>
      3.26685682e-02 1.55703560e-01 6.86244428e-01 1.58465821e-02
      2.13750545e-02 0. 5.43533266e-03 8.27215910e-02 1.49898208e-03
      1.04617402e-01 1.22351438e-01 1.46311596e-01 3.58532339e-01
      1.97334871e-01 5.50197475e-02 1.43334428e-02 3.50284457e-01
      1.28328919e-01 5.21765761e-02 0. 4.19463124e-03 3.21630621e-04
      1.94954529e-01 2.69738883e-01 2.04649866e-01 1.82085305e-01
      6.89584240e-02 8.51472914e-02 1.55596912e-01 7.78976530e-02
      1.63194373e-01 6.24700710e-02</_>
    <_>
      1.12685496e-02 6.07157648e-01 2.66245037e-01 9.15185362e-02
      9.64044128e-03 5.57801779e-03 8.58991127e-03 0. 1.80157963e-02
      2.11670958e-02 2.55800039e-01 2.10678101e-01 3.34007412e-01
      1.40301585e-01 2.00298131e-02 0. 3.92396092e-01 1.99337110e-01
      1.82693009e-04 0. 6.93860203e-02 1.77062795e-01 8.44731629e-02
      7.71617964e-02 8.13131556e-02 2.34378830e-01 1.14953183e-01
      1.64137349e-01 2.67631233e-01 4.76011075e-02 4.52554524e-02
      4.47295904e-02</_>
    <_>
      1.53304398e-01 2.53705323e-01 2.02332973e-01 1.36063814e-01
      2.11462155e-01 4.53199813e-04 9.12387972e-04 4.17655706e-02
      1.09647416e-01 4.18266165e-04 7.21151475e-04 9.60822627e-02
      1.66176394e-01 2.51362294e-01 2.58327335e-01 1.17264695e-01
      9.49055925e-02 6.07664406e-04 4.37117735e-04 8.47054198e-02
      2.82787025e-01 2.26196557e-01 2.16294900e-01 9.40655544e-02
      1.46711513e-01 2.20297515e-01 2.70087451e-01 1.72371775e-01
      1.46176249e-01 3.26724577e-04 3.26724577e-04 4.37018722e-02</_>
    <_>
      1.65411800e-01 5.73024631e-01 1.78722471e-01 0. 9.53755341e-03 0.
      0. 7.33021796e-02 5.09810932e-02 1.75289512e-01 1.90916136e-01
      9.77632254e-02 1.01263933e-01 1.48136288e-01 1.46876842e-01
      8.87728035e-02 3.55506986e-01 2.18528777e-01 1.12132658e-03
      2.06822250e-02 5.08040423e-03 1.22607961e-01 1.62550613e-01
      1.13921501e-01 2.22893149e-01 3.55237573e-01 1.90689385e-01
      9.13128629e-03 1.78169504e-01 3.33334804e-02 6.99657016e-04
      9.84581374e-03</_>
    <_>
      2.60426570e-03 5.77943884e-02 1.86202794e-01 2.94255197e-01
      4.58781749e-01 3.61178245e-04 0. 0. 6.09764224e-03 2.15752632e-03
      2.46703229e-03 1.33210436e-01 5.49235940e-01 3.01904082e-01
      3.98761593e-03 9.39145044e-04 3.14874589e-01 1.14160113e-01
      8.34247023e-02 3.83586176e-02 8.47659782e-02 6.15640543e-02
      1.95193842e-01 1.07657991e-01 2.99733996e-01 1.95860222e-01
      6.67747632e-02 3.13152224e-02 2.15810277e-02 5.99048361e-02
      1.98419094e-01 1.26410693e-01</_>
    <_>
      4.29218888e-01 2.96159565e-01 1.34291530e-01 5.34229316e-02
      1.05073419e-03 9.50397982e-04 2.06486997e-03 8.28407258e-02
      6.90716580e-02 6.29642163e-04 1.02169521e-01 8.63812715e-02
      1.47160023e-01 1.57504529e-01 2.28294894e-01 2.08788261e-01
      3.41344446e-01 7.65758625e-04 8.39790620e-04 4.89920517e-03
      2.39485335e-02 1.84746742e-01 1.44476071e-01 2.98979253e-01
      2.95134246e-01 2.00568184e-01 1.26161188e-01 8.46080184e-02
      1.22783720e-01 6.08876497e-02 1.78708753e-04 1.09678134e-01</_>
    <_>
      9.04933453e-01 0. 0. 0. 9.49450433e-02 0. 0. 0. 6.71562701e-02
      1.46893263e-01 2.75040835e-01 3.11792102e-02 1.33824348e-01
      1.23601101e-01 1.23381078e-01 9.89237502e-02 6.10311568e-01 0. 0.
      0. 9.05201538e-04 2.60673673e-03 1.71124980e-01 2.15050742e-01
      3.09385806e-01 2.66462624e-01 1.07030734e-01 5.00878431e-02
      5.42593524e-02 6.61543310e-02 6.48912564e-02 8.17279592e-02</_>
    <_>
      9.99360383e-01 0. 0. 0. 0. 0. 0. 0. 7.30347112e-02 1.03038266e-01
      0. 1.02544941e-01 5.28756261e-01 1.33277684e-01 5.93471192e-02 0.
      9.99901533e-01 0. 0. 0. 0. 0. 0. 0. 2.81752497e-01 1.21605992e-01
      8.02031010e-02 2.21967883e-02 7.57240579e-02 8.36096257e-02
      1.56536356e-01 1.78371504e-01</_>
    <_>
      0. 0. 0. 0. 0. 0. 0. 0. 9.26880613e-02 6.54140785e-02
      1.14043482e-01 2.22543538e-01 1.97127953e-01 1.11976489e-01
      1.11425176e-01 8.47809538e-02 2.30665013e-01 2.24327028e-01
      8.70522931e-02 1.47378324e-02 1.03799077e-02 1.71776086e-01
      1.51465863e-01 1.09595351e-01 1.90924719e-01 2.88367152e-01
      2.36957654e-01 6.63422942e-02 1.22142829e-01 3.06903571e-02
      1.42081291e-03 6.31540865e-02</_>
    <_>
      1.70616120e-01 5.31753004e-01 2.95645654e-01 0. 8.21424881e-04 0.
      1.16167020e-03 0. 1.70203567e-01 2.46521503e-01 2.72480369e-01
      9.04737487e-02 9.47760195e-02 4.74110357e-02 3.39284353e-02
      4.42052074e-02 3.18015486e-01 2.38753587e-01 5.29656187e-02
      4.55835741e-03 9.01996866e-02 1.43546537e-01 5.18812910e-02
      1.00079276e-01 1.60264388e-01 4.41992342e-01 2.56242514e-01
      6.68650866e-02 4.49418090e-02 8.36840016e-04 8.03301984e-04
      2.80535948e-02</_>
    <_>
      0. 0. 0. 0. 0. 0. 0. 0. 4.76326607e-02 1.60429448e-01
      1.71739608e-01 1.37961999e-01 1.18749030e-01 1.58606589e-01
      1.79021999e-01 2.58583445e-02 9.97446537e-01 0. 0. 0. 0. 0. 0. 0.
      3.14679384e-01 3.10294151e-01 5.38261607e-02 1.99740734e-02
      4.17102166e-02 6.54061064e-02 5.59927337e-02 1.38117075e-01</_>
    <_>
      1.63503680e-02 7.00428665e-01 0. 2.56649017e-01 2.65693478e-02 0.
      0. 0. 2.06101360e-03 0. 1.53062671e-01 2.15513214e-01
      3.09748679e-01 2.09410280e-01 7.93726444e-02 3.08309328e-02
      4.33121443e-01 1.13232404e-01 4.52145599e-02 2.91826930e-02
      3.29841441e-03 4.55705188e-02 2.04498529e-01 1.25881121e-01
      2.88779199e-01 1.16306201e-01 1.35900483e-01 3.20093967e-02
      7.40578100e-02 1.36777431e-01 8.01548585e-02 1.36014491e-01</_>
    <_>
      4.53429669e-03 1.24227017e-01 3.51399809e-01 2.78688699e-01
      2.37810314e-01 7.34424044e-04 2.08578212e-03 5.19316236e-04
      1.90143264e-03 1.56896189e-04 2.35041231e-02 2.57343948e-01
      5.08040786e-01 1.59669846e-01 4.93827537e-02 0. 3.72167796e-01
      1.36769593e-01 7.92092681e-02 4.52956324e-03 4.04759822e-03
      7.71824736e-04 1.52522147e-01 2.49982059e-01 4.19547468e-01
      1.33239552e-01 3.88387144e-02 2.13347888e-03 2.14905553e-02
      7.15810433e-02 1.66776404e-01 1.46392509e-01</_>
    <_>
      0. 0. 0. 0. 0. 0. 0. 0. 1.17331617e-01 1.45719543e-01
      2.36861542e-01 1.32301301e-01 2.15658218e-01 8.64609331e-02
      4.47158292e-02 2.09508408e-02 3.91310573e-01 1.77012861e-01 0.
      1.41664501e-03 4.74035507e-03 1.01993531e-01 9.50007737e-02
      2.28524551e-01 2.42998779e-01 2.60184675e-01 2.08741918e-01
      8.07175115e-02 1.02977917e-01 2.29443219e-02 2.16789674e-02
      5.97558394e-02</_>
    <_>
      9.64826941e-01 0. 0. 0. 3.51580419e-02 0. 0. 0. 2.46866443e-03
      7.62832239e-02 2.02044055e-01 1.55556872e-01 2.81572193e-01
      1.70686021e-01 1.10813759e-01 5.74929931e-04 5.47907948e-01
      1.54733166e-01 5.28340053e-04 0. 4.60747676e-03 4.25961363e-04
      7.75234848e-02 2.14273304e-01 4.18070227e-01 1.26439333e-01
      2.71450765e-02 2.29601152e-02 2.79751699e-03 3.98340859e-02
      1.28574118e-01 2.34179452e-01</_>
    <_>
      6.04179084e-01 0. 0. 0. 3.95652115e-01 0. 0. 0. 8.39855671e-02
      2.20290631e-01 2.65797824e-01 9.76312831e-02 1.34160340e-01
      9.20691565e-02 3.51120085e-02 7.09530488e-02 3.92132789e-01
      1.90322608e-01 9.65772546e-04 4.71396575e-04 1.93789299e-03
      9.64030772e-02 1.35115772e-01 1.82650298e-01 2.11727157e-01
      3.33497256e-01 2.13105321e-01 5.14776409e-02 4.67270389e-02
      3.20137143e-02 2.30704695e-02 8.83813202e-02</_>
    <_>
      1.87540933e-01 3.11956644e-01 2.14873910e-01 4.26491238e-02
      6.53884001e-03 0. 2.70714611e-03 2.33732909e-01 5.36284074e-02
      9.72570702e-02 1.21454611e-01 9.69094038e-02 2.07612321e-01
      9.83642116e-02 1.99192122e-01 1.25581726e-01 4.56921369e-01
      4.71045700e-04 1.15778076e-03 6.86349696e-04 1.09502440e-02
      3.45080383e-02 2.48327866e-01 2.46977061e-01 2.68159330e-01
      1.10578291e-01 1.39791578e-01 1.01772964e-01 1.55187085e-01
      6.43348098e-02 7.59939775e-02 8.41818824e-02</_>
    <_>
      1.08317621e-02 4.27151650e-01 4.80625331e-01 2.82087713e-03
      7.27027655e-02 0. 0. 5.86647494e-03 5.95321171e-02 7.54473880e-02
      2.49119371e-01 1.84596911e-01 3.18329781e-01 5.71573377e-02
      4.10034172e-02 1.48135377e-02 2.61747360e-01 2.74126053e-01
      8.91051516e-02 5.03649227e-02 9.97742414e-02 4.86967079e-02
      1.12344973e-01 6.38404563e-02 8.93546790e-02 3.23340714e-01
      3.49976927e-01 1.00791797e-01 1.04759656e-01 4.15201881e-04
      4.01039812e-04 3.09598912e-02</_>
    <_>
      1.86678827e-01 4.95068759e-01 9.68591943e-02 0. 2.51344275e-02 0.
      0. 1.96258128e-01 4.12717871e-02 1.16827600e-01 1.01506867e-01
      1.10815436e-01 2.04304606e-01 1.04525886e-01 2.02925161e-01
      1.17822498e-01 4.58407670e-01 3.20860520e-02 1.53062167e-04 0.
      3.69742746e-03 7.98827782e-02 1.77270666e-01 2.48502061e-01
      3.22877169e-01 1.17122039e-01 9.51433852e-02 7.25615323e-02
      1.31603613e-01 7.94102252e-02 6.35733977e-02 1.17708549e-01</_>
    <_>
      5.16930744e-02 6.54611826e-01 2.30879784e-01 4.80504818e-02
      6.49250019e-03 0. 4.56280541e-04 7.81523995e-03 1.32690132e-01
      1.17509417e-01 2.44092137e-01 1.29464790e-01 1.28443375e-01
      9.76054519e-02 9.83790010e-02 5.18155731e-02 2.64302254e-01
      2.21397206e-01 8.73323455e-02 5.17221168e-02 1.56212494e-01
      3.41904685e-02 7.95539990e-02 1.05289020e-01 1.17934451e-01
      3.87481570e-01 3.17362607e-01 6.90819547e-02 5.23217544e-02 0.
      5.88048715e-04 5.52294776e-02</_>
    <_>
      5.55446446e-02 5.14140308e-01 2.46934786e-01 3.90555933e-02
      3.21818702e-02 9.43360850e-04 0. 1.11198761e-01 6.58683702e-02
      6.70957640e-02 1.02380112e-01 1.46926150e-01 2.67038286e-01
      1.25026062e-01 1.92294091e-01 3.33709829e-02 4.09450561e-01
      6.20588884e-02 4.87087935e-04 1.76947517e-03 1.83004774e-02
      4.91820872e-02 1.84129596e-01 2.74621665e-01 2.53102332e-01
      1.26994208e-01 1.33229539e-01 8.66289884e-02 1.10599279e-01
      3.89971882e-02 8.34508762e-02 1.66997477e-01</_>
    <_>
      1.08279279e-02 3.86607200e-01 5.95743001e-01 2.31966097e-03
      4.50080354e-03 0. 0. 0. 5.05565368e-02 7.53269866e-02
      2.99077868e-01 1.96651742e-01 2.41560608e-01 7.17769042e-02
      3.69204208e-02 2.81288102e-02 2.95872808e-01 2.09806278e-01
      7.82884881e-02 1.81996766e-02 8.55255723e-02 1.04115680e-01
      7.37857968e-02 1.34405553e-01 9.47769582e-02 3.54453027e-01
      3.19997698e-01 1.24917805e-01 9.65837464e-02 2.01760558e-04
      2.28484860e-04 8.84040911e-03</_>
    <_>
      1.66566968e-01 3.52178901e-01 2.55208433e-01 5.00045568e-02
      1.06994711e-01 1.06969511e-03 1.32970838e-03 6.66467994e-02
      7.21298829e-02 2.78791063e-04 1.77082084e-02 1.03775434e-01
      3.33716452e-01 1.24218859e-01 2.80367851e-01 6.78043664e-02
      2.67177165e-01 1.90292150e-02 7.43812881e-04 3.66257653e-02
      1.09798126e-01 1.39444172e-01 2.34406143e-01 1.92775443e-01
      2.09916145e-01 1.60767123e-01 1.87941432e-01 1.03630498e-01
      1.49791211e-01 4.29015569e-02 2.75588930e-02 1.17493026e-01</_>
    <_>
      3.30224514e-01 3.66208076e-01 1.24046072e-01 8.55199695e-02
      9.58811864e-03 4.32130677e-04 1.69495601e-04 8.38112980e-02
      1.69714004e-01 3.31145972e-02 6.13944009e-02 1.05457328e-01
      2.26863980e-01 1.69084087e-01 1.77951649e-01 5.64197935e-02
      2.76543945e-01 0. 1.30532891e-03 0. 7.80157670e-02 1.69330284e-01
      2.24772766e-01 2.50031680e-01 2.85996199e-01 1.72464728e-01
      1.35707021e-01 9.19010490e-02 1.98528513e-01 7.05069527e-02
      7.86734559e-03 3.70280407e-02</_>
    <_>
      5.51555194e-02 4.59207922e-01 4.65130508e-01 0. 9.36925784e-03 0.
      2.45372811e-03 8.68217647e-03 9.71787572e-02 1.90524876e-01
      1.41277865e-01 1.04678452e-01 2.71569908e-01 6.62020221e-02
      8.70460495e-02 4.15219143e-02 2.80417979e-01 2.18483448e-01
      4.23471630e-02 4.79136780e-02 1.07845746e-01 8.02050680e-02
      1.18747167e-01 1.04039595e-01 1.43420309e-01 3.28239322e-01
      2.78749675e-01 1.01631045e-01 1.01227969e-01 2.67417810e-04
      1.70833396e-03 4.47558053e-02</_>
    <_>
      1.36652589e-01 5.28647244e-01 2.25441545e-01 4.69068922e-02
      3.43976915e-03 0. 0. 5.89111596e-02 4.15325575e-02 8.36187303e-02
      1.46756932e-01 1.72119781e-01 2.54600525e-01 1.66438773e-01
      1.07859507e-01 2.70730536e-02 3.11934590e-01 4.37565148e-02
      1.08752202e-03 0. 9.31881275e-03 1.84092343e-01 2.12462649e-01
      2.37347230e-01 2.26260215e-01 6.94853663e-02 1.06017068e-01
      1.23118117e-01 1.91891164e-01 5.97777329e-02 9.49296281e-02
      1.28520608e-01</_>
    <_>
      1.70604177e-02 8.22367847e-01 1.08958378e-01 0. 1.43950935e-02
      2.06206786e-03 1.03103393e-03 3.41239534e-02 3.15633267e-02
      6.48289472e-02 2.14139417e-01 1.60584316e-01 1.76027432e-01
      1.32129952e-01 1.17280349e-01 1.03446111e-01 3.96031976e-01
      1.84483036e-01 2.44346401e-03 1.97759038e-03 4.27369662e-02
      1.06862143e-01 1.68548509e-01 9.69161093e-02 2.31444061e-01
      2.56200165e-01 1.64536417e-01 1.26081437e-01 9.46623608e-02
      5.31756431e-02 1.49852550e-02 5.89145832e-02</_>
    <_>
      2.70510465e-01 1.66481227e-01 2.98295826e-01 1.19527295e-01
      3.98319326e-02 3.98339180e-04 1.35330425e-03 1.03601374e-01
      1.73907623e-01 2.08740370e-04 5.49499760e-04 1.00988923e-02
      1.19881019e-01 2.14792818e-01 2.21987277e-01 2.58573890e-01
      2.32551187e-01 0. 3.32013867e-03 4.52846289e-02 1.03334285e-01
      1.76360101e-01 2.95965880e-01 1.43183544e-01 3.25594008e-01
      2.19207406e-01 1.92961991e-01 8.85714814e-02 6.17740229e-02 0.
      1.82685372e-03 1.10063985e-01</_>
    <_>
      4.34102684e-01 0. 0. 0. 2.67140120e-01 2.98671722e-01 0. 0.
      1.09554529e-01 3.23250920e-01 2.50933111e-01 7.25251734e-02
      7.68417567e-02 3.59873585e-02 7.71152750e-02 5.37917428e-02
      3.24635684e-01 1.86808348e-01 5.30315079e-02 7.61376112e-04
      4.13226970e-02 5.24918474e-02 1.34237126e-01 2.06711024e-01
      2.17098504e-01 3.22445780e-01 2.14587420e-01 4.61281389e-02
      5.04535735e-02 3.87123972e-02 2.61040851e-02 8.44699815e-02</_>
    <_>
      1.99528873e-01 4.78322715e-01 2.24582627e-01 5.88737614e-02
      6.40833843e-03 0. 0. 3.22832540e-02 1.11969903e-01 2.09591184e-02
      6.20871745e-02 9.10184458e-02 2.24498078e-01 2.35836178e-01
      1.93722486e-01 5.99084646e-02 3.24085683e-01 4.73956503e-02
      1.20271998e-03 2.69838679e-03 6.23627193e-02 1.68373048e-01
      2.50734389e-01 1.43147200e-01 2.56071240e-01 1.59161329e-01
      1.54969394e-01 9.08692405e-02 1.06074452e-01 1.19986676e-01
      1.95592139e-02 9.33082998e-02</_>
    <_>
      1.29865408e-02 1.74232721e-02 9.34818149e-01 0. 3.47654000e-02 0.
      0. 0. 1.07828923e-01 9.98033509e-02 1.48212671e-01 1.90683842e-01
      2.19763950e-01 1.03006348e-01 1.10186905e-01 2.05138084e-02
      2.44077101e-01 2.54931122e-01 9.56299379e-02 6.92140460e-02
      6.62025288e-02 7.66415298e-02 1.04338907e-01 8.89646932e-02
      1.33823633e-01 3.54956925e-01 2.16846094e-01 8.30181316e-02
      1.37231112e-01 7.60802592e-04 1.79938634e-03 7.15637878e-02</_>
    <_>
      1.00376546e-01 2.49880448e-01 3.53152007e-01 1.36289448e-01
      9.89931226e-02 0. 3.73652093e-02 2.39427611e-02 7.93674681e-03
      1.77745260e-02 2.36119777e-02 1.81851387e-01 3.00492316e-01
      3.23252589e-01 1.11281015e-01 3.37992273e-02 1.85270295e-01
      1.09713338e-01 1.99988261e-02 2.61988696e-02 1.30744711e-01
      1.61165714e-01 2.00997472e-01 1.65910646e-01 2.25169107e-01
      1.59412220e-01 1.40322685e-01 8.00946206e-02 1.26168162e-01
      3.15217189e-02 9.02197361e-02 1.47091627e-01</_>
    <_>
      2.20106706e-01 3.23999643e-01 3.33156884e-01 0. 2.16730051e-02 0.
      0. 1.01063170e-01 7.43891746e-02 6.98291212e-02 7.15135708e-02
      1.48571506e-01 2.65017748e-01 1.12989314e-01 1.87699422e-01
      6.99899644e-02 4.11582857e-01 0. 0. 3.72738054e-04 3.52885388e-02
      8.38484988e-02 2.67721206e-01 2.01185867e-01 2.03239068e-01
      1.15963571e-01 1.24682069e-01 6.86748773e-02 1.84965685e-01
      7.31715783e-02 4.30357344e-02 1.86267301e-01</_>
    <_>
      1.66924179e-01 2.29274243e-01 1.69946134e-01 1.47101372e-01
      2.11345986e-01 4.82395031e-02 7.86706107e-04 2.63816901e-02
      1.56547323e-01 1.62619445e-03 2.70421355e-04 1.12728113e-02
      8.23317766e-02 8.18224847e-02 4.54378754e-01 2.11749911e-01
      2.72368610e-01 9.73033602e-04 6.80292472e-02 5.11094183e-02
      1.50337458e-01 1.82711616e-01 8.47870037e-02 1.89683497e-01
      5.19715250e-01 2.19000682e-01 1.28882185e-01 2.49483325e-02
      1.98974945e-02 1.64069323e-04 9.64294886e-04 8.64275247e-02</_>
    <_>
      2.38736019e-01 4.34117526e-01 1.94550306e-01 4.84087802e-02
      1.45948362e-02 3.58779961e-03 1.98760699e-03 6.40168488e-02
      9.79024544e-02 4.80482653e-02 1.31670639e-01 7.06107318e-02
      2.54762352e-01 1.46331251e-01 1.66944548e-01 8.37296396e-02
      2.70466089e-01 2.12832578e-02 5.99637628e-04 2.18424164e-02
      8.67905989e-02 1.04608074e-01 2.33099997e-01 2.61309743e-01
      1.78260848e-01 2.62609243e-01 1.69560969e-01 1.33496121e-01
      2.06089526e-01 1.56563800e-02 6.30553637e-04 3.36962156e-02</_>
    <_>
      1.45259321e-01 5.83994389e-01 1.85566023e-01 1.02060447e-02
      2.74849590e-02 1.83365133e-03 4.92020277e-04 4.51632924e-02
      1.51182085e-01 1.84237491e-03 7.58250281e-02 1.54923782e-01
      2.33809918e-01 1.47811159e-01 1.21192329e-01 1.13413170e-01
      3.07051152e-01 6.05238639e-02 8.02133407e-04 2.74374168e-02
      1.39580771e-01 1.18519031e-01 1.44291893e-01 2.01793581e-01
      2.19714895e-01 3.39569688e-01 1.95286021e-01 8.74784142e-02
      1.02545254e-01 1.09223148e-03 1.47139165e-03 5.28419651e-02</_>
    <_>
      9.61881340e-01 0. 0. 0. 3.80943082e-02 0. 0. 0. 1.43119410e-01
      2.13396564e-01 2.94299364e-01 6.43619448e-02 8.60826150e-02
      3.01736947e-02 1.06665380e-01 6.19008988e-02 4.04472202e-01
      1.90057054e-01 6.81442097e-02 5.98722138e-04 4.39214427e-03
      5.98210134e-02 1.95607767e-01 7.69063979e-02 1.31305426e-01
      3.26623589e-01 2.84286529e-01 8.31667706e-02 6.68507963e-02
      5.09564169e-02 1.61022209e-02 4.07081470e-02</_>
    <_>
      2.70987134e-02 0. 9.06401455e-01 0. 1.80658102e-02 1.00990944e-02
      3.83233689e-02 0. 3.50572579e-02 5.32917529e-02 3.19123566e-01
      1.66669235e-01 1.25038624e-01 9.41459388e-02 1.70028150e-01
      3.66452932e-02 2.37440914e-01 1.97048128e-01 1.67705610e-01
      4.73428071e-02 8.41832384e-02 6.13025725e-02 1.15966424e-01
      8.90101194e-02 1.17391251e-01 3.74290943e-01 3.44147056e-01
      7.02735037e-02 5.30835390e-02 2.23465613e-03 1.44299015e-03
      3.71359475e-02</_>
    <_>
      1.35589084e-02 8.14718902e-02 8.38200092e-01 0. 6.19942099e-02 0.
      0. 4.77286475e-03 5.42005477e-03 0. 1.96314380e-01 2.26779953e-01
      2.62399256e-01 2.20849589e-01 8.79118592e-02 3.24711524e-04
      3.17141950e-01 1.85454428e-01 0. 4.21960885e-03 2.95082927e-02
      9.20804292e-02 1.38870388e-01 2.32724667e-01 1.41239479e-01
      1.36599049e-01 1.47233054e-01 1.24002427e-01 1.12445928e-01
      1.11945972e-01 1.31589293e-01 9.49447006e-02</_>
    <_>
      5.89543700e-01 2.28370681e-01 7.90188380e-04 0. 1.76691485e-03 0.
      0. 1.79527611e-01 2.24542245e-01 1.01359583e-01 1.26771256e-01
      8.48017111e-02 9.07084793e-02 1.19482674e-01 1.19897977e-01
      1.32435963e-01 4.83856082e-01 0. 0. 0. 1.51836651e-03
      7.36062154e-02 7.14361817e-02 3.69582623e-01 2.91733384e-01
      1.17453866e-01 9.94163379e-02 7.84181580e-02 9.71582979e-02
      7.39545673e-02 8.70950446e-02 1.54770240e-01</_>
    <_>
      2.05331552e-03 3.11789811e-01 6.47167146e-01 2.89105475e-02
      7.80764688e-03 0. 1.33030931e-03 9.40670725e-04 5.94266430e-02
      1.13652848e-01 1.55840322e-01 2.05705211e-01 2.20903561e-01
      9.68640968e-02 7.83034787e-02 6.93037137e-02 2.31128544e-01
      1.58252299e-01 1.11317582e-01 6.15951270e-02 2.03529730e-01
      6.99775741e-02 7.32529014e-02 9.09461007e-02 1.26594171e-01
      2.76949048e-01 3.94638926e-01 1.15474224e-01 7.08802417e-02
      1.70753465e-03 1.27902965e-03 1.24766910e-02</_>
    <_>
      2.43384510e-01 3.98279548e-01 3.00897092e-01 3.30217816e-02
      1.66890901e-02 0. 0. 7.72750285e-03 4.01947908e-02 5.49672954e-02
      1.21542901e-01 1.21532016e-01 3.46206695e-01 1.38667241e-01
      1.41523778e-01 3.53651457e-02 4.22703654e-01 2.09771972e-02
      1.24932732e-03 7.01177958e-03 2.55794800e-03 9.08662900e-02
      1.56895384e-01 2.97738254e-01 2.12723270e-01 1.68216839e-01
      1.55450761e-01 1.32480472e-01 9.20338482e-02 9.36968401e-02
      6.02838919e-02 8.51139575e-02</_>
    <_>
      1.19977191e-01 4.05548185e-01 2.77328968e-01 6.40461512e-04
      5.27064409e-03 0. 0. 1.91234007e-01 7.90528357e-02 5.03524914e-02
      5.02923056e-02 1.57995924e-01 2.81083882e-01 9.46640819e-02
      2.67242461e-01 1.93158444e-02 4.43645537e-01 0. 6.59649668e-04
      2.82824729e-02 2.26257974e-03 1.61290884e-01 2.18142495e-01
      1.45716086e-01 2.06060022e-01 1.30061597e-01 1.84981048e-01
      6.62877485e-02 2.05304399e-01 9.07611549e-02 1.95371136e-02
      9.70067605e-02</_>
    <_>
      9.16471124e-01 0. 0. 0. 8.33155587e-02 0. 0. 0. 5.06635057e-03
      1.74199358e-01 3.09731305e-01 2.12928846e-01 2.77975202e-01
      1.92375593e-02 8.61234206e-04 0. 3.24690133e-01 2.29187354e-01
      5.07808849e-02 4.44399280e-04 2.67009642e-02 1.50706306e-01
      9.11544561e-02 1.26335144e-01 7.73453414e-02 2.03196749e-01
      2.32762143e-01 1.27095357e-01 2.16585949e-01 6.62144423e-02
      4.12541367e-02 3.55457701e-02</_>
    <_>
      6.89689368e-02 3.44353944e-01 3.33777130e-01 9.11552384e-02
      1.58052668e-01 7.63507909e-04 8.66804738e-04 2.06146925e-03
      1.84328761e-02 4.84666874e-04 2.35571600e-02 1.74911976e-01
      3.04112494e-01 2.37309396e-01 2.17102751e-01 2.40885038e-02
      2.65048325e-01 3.83169018e-02 2.22190320e-02 3.83545570e-02
      9.54072475e-02 2.04848409e-01 2.03504845e-01 1.32300526e-01
      2.00230151e-01 1.66689888e-01 1.60416171e-01 1.23946019e-01
      2.11538509e-01 1.76381562e-02 4.25926559e-02 7.69483224e-02</_>
    <_>
      1.30180255e-01 3.49342525e-01 2.53992736e-01 1.16962396e-01
      1.26464605e-01 0. 0. 2.30572149e-02 5.30618578e-02 0.
      2.11017579e-02 1.17576115e-01 2.09910780e-01 2.53747880e-01
      2.56287366e-01 8.83140340e-02 2.74419218e-01 1.93771515e-02
      2.32463804e-04 6.84763864e-03 1.14855260e-01 2.49966875e-01
      2.06011176e-01 1.28290027e-01 2.78150648e-01 1.69440448e-01
      1.92895606e-01 9.06121358e-02 1.40225112e-01 0. 1.59767158e-02
      1.12699181e-01</_>
    <_>
      2.86554592e-03 3.15253347e-01 3.99352133e-01 1.26805931e-01
      1.52023256e-01 5.99252409e-04 1.62013422e-03 1.48004421e-03
      8.44083540e-03 0. 6.62938654e-02 2.36878961e-01 3.68305713e-01
      1.98516235e-01 8.59431922e-02 3.56210321e-02 2.57456094e-01
      2.01358423e-01 6.42578378e-02 3.62324975e-02 8.46024603e-02
      1.22907095e-01 1.76849172e-01 5.63363135e-02 1.67291522e-01
      2.41549999e-01 3.43034565e-01 1.29105195e-01 7.35111386e-02
      6.52901188e-04 9.25598026e-04 4.39289361e-02</_>
    <_>
      5.41456975e-03 2.76587337e-01 5.42965293e-01 1.26615450e-01
      5.02781477e-03 0. 3.45924171e-03 3.99292856e-02 4.77416301e-03
      2.61246338e-02 1.21708237e-01 1.12882592e-01 4.37545329e-01
      1.87756300e-01 1.08912826e-01 2.95746198e-04 4.06749189e-01
      9.15810466e-02 4.46621180e-02 3.09925148e-04 2.53148796e-03
      4.34743129e-02 1.66782737e-01 2.43909016e-01 3.14010978e-01
      1.79834142e-01 6.84948266e-02 3.21405120e-02 5.18414974e-02
      6.24730512e-02 1.39967144e-01 1.51237711e-01</_>
    <_>
      1.11555820e-02 5.46623230e-01 4.28870857e-01 0. 1.05981287e-02 0.
      1.46568974e-03 1.28549489e-03 8.31929669e-02 1.14851534e-01
      2.35655472e-01 1.49267077e-01 3.14278185e-01 4.57723439e-02
      1.85090564e-02 3.84732187e-02 2.99876779e-01 2.92341590e-01
      2.05641612e-02 3.81088480e-02 7.59466141e-02 7.36391544e-02
      1.00843370e-01 9.86793414e-02 1.04104877e-01 3.23434561e-01
      3.13693762e-01 9.65786353e-02 1.42083988e-01 5.20033878e-04
      6.57796627e-05 1.95182543e-02</_>
    <_>
      6.88124076e-02 6.31321788e-01 2.80687243e-01 9.09602677e-04
      5.93922427e-03 0. 6.09009992e-04 1.17203230e-02 5.64283542e-02
      2.11924434e-01 2.36412719e-01 1.79226369e-01 2.49203116e-01
      1.87758207e-02 3.62762772e-02 1.17527796e-02 2.74675995e-01
      2.01351687e-01 1.85347404e-02 4.35442775e-02 1.27340496e-01
      1.31961882e-01 9.70928073e-02 1.05497994e-01 5.13866879e-02
      2.81147212e-01 4.54465419e-01 1.05217308e-01 1.04481310e-01 0.
      1.36851857e-04 3.16510443e-03</_>
    <_>
      1.77807733e-01 2.71560341e-01 2.22980917e-01 1.25022009e-01
      1.33530095e-01 7.92615174e-04 6.20346633e-04 6.76857457e-02
      1.28728002e-01 6.09478389e-04 1.31133536e-03 6.58661649e-02
      2.07424268e-01 2.49502018e-01 2.49568269e-01 9.69902948e-02
      2.63766199e-01 1.17289368e-04 1.48360617e-04 4.41570617e-02
      1.46592170e-01 1.07702799e-01 2.38802910e-01 1.98713079e-01
      2.69047260e-01 1.99394971e-01 1.53150409e-01 1.11272827e-01
      1.20077811e-01 2.23275259e-04 1.45467278e-02 1.32286593e-01</_>
    <_>
      1.84453443e-01 5.91059983e-01 1.50265470e-01 6.24193251e-03
      1.09149953e-02 0. 1.07114213e-02 4.63517047e-02 1.06243826e-01
      1.19827390e-01 1.80434048e-01 1.62578285e-01 1.66776821e-01
      6.23967499e-02 9.60610658e-02 1.05681658e-01 3.82181197e-01
      2.30363965e-01 8.13777521e-02 1.46314418e-02 3.61731905e-03
      3.93575616e-02 5.60476296e-02 1.92423001e-01 2.53512472e-01
      4.23098475e-01 1.90520242e-01 2.91180499e-02 4.11463482e-03
      4.62682074e-04 1.97776291e-03 9.71955732e-02</_>
    <_>
      2.20724657e-01 3.53903741e-01 3.69282007e-01 1.42157124e-03
      4.26650420e-03 2.72261631e-03 0. 4.76781987e-02 1.25073111e-02
      5.82854226e-02 1.35024205e-01 1.82321846e-01 2.30620265e-01
      1.50344416e-01 1.75325662e-01 5.55707216e-02 3.89729112e-01
      5.01246303e-02 2.95985112e-04 1.24182142e-02 1.23205185e-02
      8.18788707e-02 1.82477012e-01 2.70755470e-01 2.37595126e-01
      1.51108205e-01 1.34938598e-01 5.17920218e-02 1.45590484e-01
      8.26886594e-02 7.21778497e-02 1.24108955e-01</_>
    <_>
      3.59891713e-01 3.06890663e-02 1.25814036e-01 1.14554606e-01
      9.53382328e-02 1.56361669e-01 5.94936963e-03 1.11399710e-01
      2.19400629e-01 1.03344947e-01 8.21803138e-02 1.64118171e-01
      1.21709622e-01 4.38510254e-02 2.86376271e-02 2.36757457e-01
      4.12787169e-01 3.16039249e-02 1.34787932e-01 4.46947031e-02
      1.97871879e-01 3.16039249e-02 1.01919599e-01 4.46947031e-02
      6.52031958e-01 1.46602187e-02 6.19256031e-03 1.38904192e-02
      5.31702826e-04 1.50799174e-02 1.47394435e-02 2.82873601e-01</_>
    <_>
      5.12248799e-02 5.03974110e-02 6.76958203e-01 8.43565837e-02
      4.68505919e-02 4.25102800e-04 6.69604540e-03 8.30907226e-02
      3.18224318e-02 1.40174374e-03 9.34495882e-04 2.26590052e-01
      9.30458307e-02 6.65477589e-02 3.97180840e-02 5.39939046e-01
      5.76937534e-02 2.08565723e-02 1.06985785e-01 2.00820208e-01
      7.13252574e-02 4.78583090e-02 6.45589307e-02 4.29900914e-01
      7.04461038e-02 1.19821401e-02 4.85417340e-03 1.07170738e-01
      5.72008416e-02 5.66836447e-02 4.26386632e-02 6.49023473e-01</_>
    <_>
      7.56829008e-02 2.52142437e-02 5.02832830e-01 1.68843985e-01
      9.80608612e-02 4.42231223e-02 7.88156316e-02 6.32610405e-03
      4.30762380e-01 3.92851932e-03 6.28526434e-02 1.17241919e-01
      8.66496935e-02 3.32762487e-02 7.49595687e-02 1.90328643e-01
      6.42216325e-01 0. 4.88375081e-04 2.51588575e-03 6.25019521e-03 0.
      4.66273306e-03 3.43865633e-01 7.96880722e-01 0. 5.33941295e-03 0.
      3.29422741e-03 3.67175788e-04 1.05323466e-02 1.83585897e-01</_>
    <_>
      2.50132948e-01 2.22346738e-01 2.83407748e-01 7.04888627e-02
      1.09345801e-01 6.42774701e-02 0. 0. 7.23601043e-01 0. 0. 0.
      9.57041010e-02 1.23641782e-01 0. 5.70520870e-02 5.72796643e-01
      5.64683490e-02 0. 9.45134759e-02 2.76221067e-01 0. 0. 0.
      5.42413473e-01 0. 0. 4.37239259e-02 3.38943869e-01 0.
      6.18344881e-02 1.30837802e-02</_>
    <_>
      1.46838069e-01 1.71448573e-01 3.72752696e-01 6.46691918e-02
      1.83876753e-01 0. 0. 6.04141019e-02 6.24961913e-01 5.60946018e-02
      0. 5.77536598e-02 9.15158689e-02 4.50673364e-02 4.47232090e-02
      7.98829943e-02 2.35888064e-01 4.02240381e-02 0. 4.57998425e-01
      1.74478084e-01 0. 3.73470830e-03 8.76758099e-02 4.37373310e-01
      3.14938128e-02 0. 4.49281000e-02 3.71394008e-01 0. 4.79949117e-02
      6.68155253e-02</_>
    <_>
      3.06461006e-01 1.66616857e-01 1.93422079e-01 1.76994264e-01
      3.69942142e-03 6.24106750e-02 0. 9.03952718e-02 4.13476169e-01
      2.73103088e-01 7.04954192e-02 0. 1.12320997e-01 0. 7.14357048e-02
      5.91680892e-02 1.95116237e-01 2.12144017e-01 6.32054359e-02
      1.31626502e-01 3.08153242e-01 0. 4.83583957e-02 4.13957424e-02
      4.58795637e-01 0. 0. 1.15845025e-01 3.61040443e-01 0. 0.
      6.43177330e-02</_>
    <_>
      0. 0. 9.99488235e-01 0. 0. 0. 0. 0. 2.50547409e-01 7.69889280e-02
      3.36648941e-01 2.03672513e-01 4.52412590e-02 2.48149224e-03
      4.90871742e-02 3.53319868e-02 3.33460122e-01 0. 9.32049453e-02 0.
      8.33650306e-02 0. 1.86409891e-01 3.03453296e-01 7.05568731e-01
      4.88712229e-02 4.99778539e-02 2.97085848e-02 7.38822073e-02
      2.82007903e-02 2.99589820e-02 3.38314734e-02</_>
    <_>
      5.82566932e-02 1.24953330e-01 4.17910039e-01 1.63627058e-01
      2.35251725e-01 0. 0. 0. 2.15037122e-01 1.15200721e-01
      1.58495679e-01 2.02226549e-01 1.97378442e-01 2.17067404e-03
      4.30122390e-02 6.64783120e-02 2.34189898e-01 0. 2.28579998e-01 0.
      3.30161691e-01 1.03390142e-01 1.03677325e-01 0. 6.24624074e-01
      1.64157171e-02 5.05452976e-02 7.38092437e-02 1.42149851e-01
      6.42561936e-04 1.64508242e-02 7.53623024e-02</_>
    <_>
      4.04534340e-01 0. 0. 0. 5.60742058e-02 0. 0. 5.39362729e-01
      1.77121550e-01 7.86594599e-02 1.67789415e-01 1.31736681e-01
      1.70970842e-01 1.07484691e-01 8.00963044e-02 8.61408859e-02
      9.60196331e-02 1.10572018e-01 2.23931804e-01 8.22216347e-02
      3.33913654e-01 7.15101196e-04 0. 1.52625322e-01 2.04064220e-01
      2.18407452e-01 1.70694157e-01 7.10610077e-02 1.58465549e-01
      7.57010132e-02 2.52713431e-02 7.63351098e-02</_>
    <_>
      3.45559232e-02 1.13480806e-01 1.00592129e-01 7.40040317e-02
      2.06004739e-01 2.02666074e-01 1.09024853e-01 1.59670651e-01
      2.88664013e-01 5.04604727e-02 6.98375031e-02 1.56918600e-01
      3.10232133e-01 7.29245096e-02 2.62633227e-02 2.46992689e-02
      2.87729949e-01 0. 2.67967105e-01 0. 2.87729949e-01 0.
      1.56520426e-01 0. 4.79570955e-01 4.68598902e-02 2.82166563e-02
      8.27687755e-02 2.26075292e-01 1.41287763e-02 6.18014298e-02
      6.05781078e-02</_>
    <_>
      0. 0. 0. 0. 0. 0. 0. 0. 2.88330197e-01 2.54804850e-01
      3.21254060e-02 1.15733840e-01 1.63471848e-01 3.39865200e-02
      4.92173596e-04 1.11054838e-01 1.02317426e-02 0. 1.42837495e-01
      1.09319635e-01 4.85025257e-01 4.81579639e-03 0. 2.47768864e-01
      2.86546290e-01 3.54889274e-01 7.07125962e-02 3.38073857e-02
      1.73138544e-01 8.18626839e-04 2.27046572e-02 5.73824719e-02</_>
    <_>
      5.31606413e-02 0. 0. 5.01768701e-02 6.95165575e-01 5.17050084e-03
      0. 1.96325213e-01 1.82446018e-01 3.93591996e-04 1.09304033e-01
      1.91569373e-01 2.84643680e-01 1.10194907e-01 2.80766282e-03
      1.18640281e-01 2.56347567e-01 0. 3.29931942e-03 2.33855695e-01
      4.99335229e-01 3.13000917e-03 4.03099740e-03 0. 5.11734545e-01
      9.98747535e-04 2.06320845e-02 1.13079011e-01 2.19313905e-01
      1.57380886e-02 3.37314084e-02 8.47720578e-02</_>
    <_>
      4.93676007e-01 0. 0. 0. 2.33047664e-01 0. 2.73273885e-01 0.
      3.44496846e-01 8.43617425e-04 1.34337291e-01 1.57311901e-01
      2.23693281e-01 3.18061598e-02 3.09626218e-02 7.65480399e-02
      3.89548570e-01 0. 0. 0. 2.96057537e-02 0. 0. 5.80839872e-01
      3.03025216e-01 1.57835409e-02 3.45619731e-02 1.75081804e-01
      3.52805525e-01 3.55476998e-02 1.61230285e-02 6.70710877e-02</_>
    <_>
      0. 0. 0. 0. 0. 0. 0. 0. 1.28232032e-01 1.69865504e-01
      3.73077914e-02 1.84139013e-01 3.78666669e-01 5.71818149e-04
      3.21249361e-03 9.80043411e-02 3.76689523e-01 0. 0. 1.33350506e-01
      3.79546106e-01 3.56923714e-02 1.89317763e-02 5.57840727e-02
      2.45979086e-01 3.71424943e-01 1.13823488e-01 2.28821188e-02
      1.90648094e-01 1.56331505e-03 8.61723965e-04 5.28170876e-02</_>
    <_>
      3.86860631e-02 1.60821825e-01 2.37681016e-01 2.10079566e-01
      3.05173367e-01 0. 3.98523523e-04 4.71594073e-02 2.33585417e-01
      2.74334490e-01 1.59302592e-01 1.42804950e-01 9.36850980e-02
      8.12491227e-04 1.89474598e-02 7.65273273e-02 4.35587317e-01
      2.77429730e-01 8.33376572e-02 8.69024545e-02 6.84774965e-02
      5.71609940e-04 1.74977526e-03 4.59436439e-02 4.09178227e-01
      4.39642072e-01 1.23018562e-03 1.08274096e-03 3.28659592e-03
      1.91403393e-04 4.84216522e-04 1.44904330e-01</_>
    <_>
      3.87104362e-01 2.48846754e-01 0. 1.94755584e-01 1.69292361e-01 0.
      0. 0. 1.69547886e-01 2.48992920e-01 2.03198895e-01 1.43582478e-01
      1.22069292e-01 1.14307877e-04 1.81755284e-03 1.10676534e-01 0. 0.
      0. 0. 9.99970913e-01 0. 0. 0. 5.91173828e-01 2.64381915e-01
      9.51934489e-04 4.78856877e-04 2.62125023e-03 1.06542115e-03
      9.23125830e-04 1.38403505e-01</_>
    <_>
      9.53848362e-01 0. 0. 0. 2.60818526e-02 0. 0. 2.00650096e-02
      1.24977343e-01 2.13738009e-01 3.16335559e-01 7.30239525e-02
      1.84254840e-01 3.73637788e-02 1.35562299e-02 3.67501304e-02
      8.17287564e-01 0. 0. 8.94671381e-02 8.84267837e-02 0.
      4.80978284e-03 0. 3.06813687e-01 2.92409033e-01 2.14091092e-01
      2.81957146e-02 8.72493461e-02 1.21529898e-04 1.01939484e-03
      7.01000541e-02</_>
    <_>
      0. 0. 0. 0. 0. 0. 0. 0. 7.56718144e-02 1.44177929e-01
      1.00300334e-01 2.53684998e-01 3.08685780e-01 6.65032596e-04
      1.94101559e-03 1.14872716e-01 8.33946243e-02 4.14391197e-02
      5.40300012e-02 0. 7.87703276e-01 0. 3.34092863e-02 0.
      2.74972379e-01 5.09955287e-01 1.60245910e-01 1.05867023e-03
      3.48118506e-03 1.59706944e-03 1.66144408e-02 3.20749022e-02</_>
    <_>
      2.57256925e-01 0. 0. 0. 7.42741764e-01 0. 0. 0. 3.36592674e-01 0.
      1.10991716e-01 9.26287845e-02 1.75841674e-01 0. 4.16571423e-02
      2.42287725e-01 7.32695917e-03 0. 0. 6.09853208e-01 3.79539341e-01
      0. 3.27671575e-03 0. 8.00591111e-01 1.32805863e-02 1.91062894e-02
      2.88065188e-02 5.97826391e-02 1.86405033e-02 3.94496880e-02
      2.03425307e-02</_>
    <_>
      0. 0. 0. 0. 0. 0. 0. 0. 2.49987245e-01 2.47730657e-01
      6.84199855e-02 1.76099762e-01 1.46911308e-01 2.50469800e-02
      3.52837853e-02 5.05200252e-02 1.34639293e-01 0. 0. 5.57007074e-01
      1.74532421e-02 0. 0. 2.90898263e-01 2.92818487e-01 2.86272466e-01
      1.68018118e-01 8.03650171e-02 3.93975340e-02 1.55605888e-02
      1.60698891e-02 1.01497799e-01</_>
    <_>
      4.99893367e-01 0. 0. 0. 4.99893367e-01 0. 0. 0. 3.10210168e-01
      5.77960685e-02 5.36462478e-02 9.50120464e-02 1.92854315e-01
      5.91961145e-02 1.63719594e-01 6.75650313e-02 1.91567559e-02 0. 0.
      0. 3.83135118e-03 0. 0. 9.77002084e-01 5.97508192e-01
      3.20251361e-02 1.92763116e-02 1.05712883e-01 1.68928728e-01
      7.18663214e-04 1.87195502e-02 5.71104288e-02</_>
    <_>
      0. 0. 0. 0. 0. 0. 0. 0. 1.76633313e-01 2.40782425e-01
      1.29988939e-01 1.32772118e-01 1.83271602e-01 0. 2.62220409e-02
      1.10329315e-01 1.61327854e-01 0. 0. 1.57017365e-01 5.24632215e-01
      0. 0. 1.57020986e-01 2.90492564e-01 2.47499898e-01 1.38493001e-01
      3.88030782e-02 1.67735949e-01 3.57490927e-02 1.44489659e-02
      6.67773187e-02</_>
    <_>
      3.52968067e-01 0. 0. 0. 6.47030175e-01 0. 0. 0. 3.46093744e-01 0.
      6.42530024e-02 1.55446544e-01 1.08460516e-01 7.13855624e-02
      7.07545578e-02 1.83605790e-01 9.34222579e-01 0. 0. 0.
      6.57493696e-02 0. 0. 0. 5.49981236e-01 0. 2.22372580e-02
      6.99588060e-02 1.54132858e-01 0. 2.23715995e-02 1.81318074e-01</_>
    <_>
      2.83134699e-01 0. 0. 2.37823799e-01 2.42050037e-01 0. 0.
      2.36988276e-01 2.37526581e-01 0. 5.52824512e-02 1.66984841e-01
      2.75886446e-01 1.04380861e-01 8.15381408e-02 7.84004629e-02
      5.96906483e-01 0. 0. 1.84299964e-02 1.91313729e-01 1.60527110e-01
      0. 3.28174606e-02 4.55365509e-01 3.67969722e-02 1.72530841e-02
      1.42875656e-01 2.10572496e-01 1.61775260e-03 2.14283932e-02
      1.14089996e-01</_>
    <_>
      0. 0. 0. 0. 0. 0. 0. 0. 2.34736368e-01 1.73151433e-01
      3.13270502e-02 2.06497103e-01 2.10536465e-01 7.51354098e-02
      2.91151144e-02 3.95008400e-02 1.59917518e-01 1.20974593e-01
      2.12001532e-01 3.54279816e-01 1.05265193e-01 4.65515442e-03
      3.92284850e-03 3.89825553e-02 2.31425464e-01 3.80893737e-01
      1.12824477e-01 4.58941497e-02 1.08450688e-01 1.98459867e-02
      7.84751319e-04 9.98806208e-02</_>
    <_>
      3.41658354e-01 6.50953412e-01 3.05802398e-03 0. 4.32469882e-03 0.
      0. 0. 1.13161899e-01 1.49796411e-01 2.52727717e-01 1.62288576e-01
      2.91992068e-01 3.14913050e-04 6.37639663e-04 2.90805157e-02
      3.23797286e-01 2.56133437e-01 1.13055736e-01 1.49240673e-01
      1.40726030e-01 7.73812353e-04 0. 1.62726473e-02 2.54640043e-01
      3.84117305e-01 1.69258118e-01 1.11797243e-01 2.27132328e-02
      1.97583847e-02 1.48947537e-03 3.62260453e-02</_>
    <_>
      9.99829352e-01 0. 0. 0. 0. 0. 0. 0. 9.86228511e-02 1.50980800e-01
      3.13941449e-01 2.02349097e-01 1.85788140e-01 5.50464448e-03
      1.87809777e-03 4.09347229e-02 1.44372717e-01 4.70271856e-01
      1.81857750e-01 0. 1.93461597e-01 0. 0. 1.00353528e-02
      2.95052141e-01 3.57459664e-01 1.97029769e-01 1.04019023e-03
      5.12125762e-03 7.05420272e-04 2.14994289e-02 1.22091971e-01</_>
    <_>
      9.99147415e-01 0. 0. 0. 0. 0. 0. 0. 5.53755164e-01 8.95726308e-02
      5.28802983e-02 6.26756996e-02 1.31485611e-01 0. 5.04887626e-02
      5.91416508e-02 9.98721659e-01 0. 0. 0. 0. 0. 0. 0. 8.10906112e-01
      1.59262959e-02 1.30693335e-02 2.98427697e-02 6.54414594e-02 0.
      1.41665339e-02 5.06473854e-02</_>
    <_>
      0. 0. 0. 0. 0. 0. 0. 0. 1.34379610e-01 3.36956531e-01
      2.16326103e-01 7.85227045e-02 1.89276874e-01 0. 3.09121720e-02
      1.36257131e-02 1.27930045e-01 5.37562847e-01 1.91860363e-01
      2.20416510e-03 1.34825706e-01 1.93136022e-03 9.02473636e-04
      2.78254598e-03 1.17394492e-01 5.55893898e-01 2.68097371e-01
      1.04863755e-03 1.76841971e-02 1.72861968e-03 3.06941848e-03
      3.50832194e-02</_>
    <_>
      1.72443956e-01 1.97558045e-01 6.64686644e-03 3.29193077e-03
      2.95071304e-01 1.99302495e-01 8.68566893e-03 1.16998099e-01
      3.32898855e-01 0. 1.11088991e-01 9.39141959e-02 3.40614527e-01
      3.06249093e-02 2.67516356e-02 6.41066581e-02 7.50769451e-02 0. 0.
      2.79033720e-01 7.70532787e-02 5.50380535e-03 5.50380535e-03
      5.57825625e-01 5.63485861e-01 3.78200077e-02 4.03893478e-02
      4.51804362e-02 1.53260797e-01 3.55609879e-02 1.77011155e-02
      1.06601313e-01</_>
    <_>
      0. 0. 0. 0. 0. 0. 0. 0. 3.37853849e-01 1.34514853e-01
      1.40932888e-01 1.34031504e-01 1.12709127e-01 2.10762713e-02
      2.08459236e-02 9.80353951e-02 3.63615215e-01 0. 0. 0.
      6.36326611e-01 0. 0. 0. 2.53193349e-01 1.95959643e-01
      3.25728320e-02 6.89272732e-02 3.12444359e-01 0. 2.62959953e-02
      1.10606439e-01</_>
    <_>
      6.70383312e-03 0. 2.80691177e-01 4.99996483e-01 2.12607279e-01 0.
      0. 0. 1.07615419e-01 1.45350710e-01 2.13858649e-01 2.93948412e-01
      2.06502467e-01 9.52997361e-04 1.60079531e-03 3.01702749e-02
      1.91832006e-01 2.84160525e-01 2.14399710e-01 8.12381208e-02
      1.40372813e-01 3.18519771e-02 6.29909453e-04 5.55147156e-02
      2.51806170e-01 3.73863548e-01 2.53539711e-01 1.94234923e-02
      2.15143878e-02 0. 6.43717824e-04 7.92087242e-02</_>
    <_>
      2.26538423e-02 3.22839200e-01 0. 2.75728345e-01 3.73008609e-01 0.
      0. 5.76861110e-03 1.73992798e-01 3.04973801e-04 1.81975141e-01
      2.33913362e-01 3.60628366e-01 0. 4.91850004e-02 0. 5.83156347e-01
      2.70349876e-04 7.38046914e-02 1.40436282e-02 3.12057603e-02
      3.35506238e-02 7.11505488e-02 1.92817762e-01 6.38619423e-01
      2.65354551e-02 3.63501138e-04 3.37680206e-02 1.36095226e-01 0.
      7.46665057e-04 1.63871467e-01</_>
    <_>
      4.73933011e-01 0. 0. 4.81371492e-01 4.46931459e-02 0. 0. 0.
      8.83418322e-02 1.09818466e-01 1.99369252e-01 1.60540849e-01
      3.49924862e-01 0. 2.58186720e-02 6.61858544e-02 2.62614995e-01
      3.39162886e-01 1.10994592e-01 8.19612120e-04 1.17953569e-01 0.
      5.15576713e-02 1.16896302e-01 3.06061238e-01 3.35104018e-01
      1.46853730e-01 0. 1.07219353e-01 0. 2.47683958e-04 1.04513794e-01</_>
    <_>
      0. 0. 0. 0. 0. 0. 0. 0. 0. 0. 0. 0. 9.99865294e-01 0. 0. 0.
      1.43698394e-01 5.42404177e-03 2.07334921e-01 1.37951657e-01
      1.58643022e-01 0. 2.02069998e-01 1.44876480e-01 4.99289393e-01
      5.03298379e-02 1.46485224e-01 9.23293233e-02 1.15219854e-01
      4.72920462e-02 0. 4.90541942e-02</_>
    <_>
      9.99989331e-01 0. 0. 0. 0. 0. 0. 0. 1.70173436e-01 1.01058066e-01
      3.58682334e-01 1.28287807e-01 1.57820642e-01 5.11781685e-02
      2.85367278e-04 3.25139724e-02 9.31904733e-01 0. 0. 0.
      6.80843666e-02 0. 0. 0. 3.65348548e-01 2.91301429e-01
      4.09518331e-02 4.51016836e-02 1.00506686e-01 1.82179846e-02
      6.19491038e-04 1.37952209e-01</_>
    <_>
      9.97446537e-01 0. 0. 0. 0. 0. 0. 0. 1.40443057e-01 1.53800696e-01
      1.35940477e-01 1.49908334e-01 2.99409837e-01 6.22271299e-02 0.
      5.82699254e-02 9.99987125e-01 0. 0. 0. 0. 0. 0. 0. 5.86113214e-01
      2.90407650e-02 1.06278278e-01 8.49437043e-02 1.05983540e-01
      4.03026976e-02 2.36542473e-04 4.71011549e-02</_>
    <_>
      0. 0. 0. 0. 0. 0. 0. 0. 3.67601332e-03 5.75577430e-02
      3.98921430e-01 2.99584568e-01 2.36736506e-01 1.47352903e-03
      2.04979233e-03 0. 0. 0. 0. 0. 0. 0. 0. 0. 2.20175788e-01
      3.52169722e-01 9.99981314e-02 5.22822849e-02 1.61498740e-01
      7.84873380e-04 3.09557021e-02 8.21346343e-02</_>
    <_>
      0. 0. 0. 0. 0. 0. 0. 0. 1.19112313e-01 2.86568195e-01
      2.49099150e-01 1.44262269e-01 5.50220758e-02 6.58214167e-02
      2.54644137e-02 5.46499565e-02 9.99803126e-01 0. 0. 0. 0. 0. 0. 0.
      2.34573185e-01 3.64891231e-01 1.61299780e-01 5.32394424e-02
      6.79123122e-03 8.43408778e-02 2.27469206e-02 7.21171573e-02</_>
    <_>
      5.08337140e-01 0. 2.61833668e-01 0. 2.29643315e-01 0. 0. 0.
      1.11093894e-01 1.02967583e-01 3.36260885e-01 1.70020655e-01
      1.14004858e-01 3.37316431e-02 6.51642829e-02 6.67559654e-02
      3.73995095e-01 9.02457163e-02 1.06656857e-01 1.21191877e-03
      7.76270106e-02 6.57255296e-04 1.10858940e-01 2.38746449e-01
      2.14897677e-01 3.62138242e-01 2.13417530e-01 5.30525111e-02
      6.13319464e-02 4.78967167e-02 9.55759920e-03 3.77076231e-02</_>
    <_>
      1.57231182e-01 8.44031423e-02 2.29844689e-01 2.32696280e-01
      2.31510326e-01 0. 6.11161925e-02 3.19758989e-03 3.15150648e-01
      7.58809969e-02 1.33769050e-01 1.91485167e-01 1.70075804e-01
      4.46274951e-02 2.14791447e-02 4.75315154e-02 2.41031155e-01
      1.10285208e-01 9.19220150e-02 0. 3.57771784e-01 8.89329538e-02
      1.10056080e-01 0. 5.37949324e-01 1.32863978e-02 0. 5.68523183e-02
      3.63104314e-01 0. 1.31560918e-02 1.56514272e-02</_>
    <_>
      3.05492073e-01 0. 3.93095881e-01 2.99136490e-01 2.27264734e-03 0.
      0. 0. 1.52070552e-01 1.22796334e-01 1.81435362e-01 1.82966933e-01
      2.59716511e-01 5.12214005e-02 1.59822011e-04 4.96328138e-02
      4.85479608e-02 0. 4.61735912e-02 0. 7.23930001e-01 9.09501389e-02
      0. 9.03979316e-02 2.74902284e-01 1.86126426e-01 7.98614323e-02
      4.02003750e-02 3.06572378e-01 1.89166535e-02 1.20385950e-02
      8.13817531e-02</_>
    <_>
      6.88883243e-03 2.13421345e-01 1.95113733e-01 1.76039129e-01
      1.73389450e-01 8.48158747e-02 4.39588417e-04 1.49891257e-01
      2.33487636e-01 1.70658588e-01 1.43765897e-01 1.78018421e-01
      1.43083379e-01 2.34045349e-02 6.44104322e-04 1.06937245e-01
      8.16463903e-02 1.23559892e-01 5.93650118e-02 1.63579896e-01
      4.86628681e-01 0. 0. 8.52196813e-02 2.84858227e-01 2.68788934e-01
      1.90415457e-02 5.29142730e-02 2.04702377e-01 1.80659164e-02
      3.63495573e-02 1.15279034e-01</_>
    <_>
      1.25546888e-01 1.02410687e-03 4.32279676e-01 1.67791381e-01
      1.60388514e-01 1.02410687e-03 6.47702080e-04 1.11296438e-01
      6.93670437e-02 1.72499955e-01 1.41666636e-01 2.08780617e-01
      2.82452404e-01 2.46113036e-02 2.61681061e-02 7.44536892e-02
      1.73927173e-02 1.06363691e-01 2.05452397e-01 2.21319303e-01
      4.24374342e-01 0. 0. 2.50967909e-02 3.69595855e-01 3.87198925e-01
      2.01939736e-02 7.76108354e-03 6.31879047e-02 1.58933830e-02
      1.97229106e-02 1.16445825e-01</_>
    <_>
      1.16233556e-02 0. 8.15314472e-01 0. 1.73058853e-01 0. 0. 0.
      1.43750280e-01 6.32096380e-02 3.12288910e-01 1.43234432e-01
      1.86290607e-01 0. 6.09226301e-02 9.03030485e-02 4.49144423e-01 0.
      0. 2.10116521e-01 3.40736896e-01 0. 0. 0. 4.66403097e-01
      5.10968491e-02 3.58429766e-04 5.43027706e-02 1.19471528e-01
      3.20589315e-04 4.18074280e-02 2.66239136e-01</_>
    <_>
      5.49578592e-02 1.09733559e-01 2.92549938e-01 1.72181576e-01
      2.70481527e-01 5.17436750e-02 3.13057238e-03 4.52209003e-02
      3.49754989e-01 1.71586275e-01 6.76898956e-02 1.51661783e-01
      1.52472019e-01 1.51795510e-03 5.99004142e-02 4.54163849e-02
      6.68199420e-01 1.26574039e-01 0. 0. 5.61685152e-02 9.40715298e-02
      0. 5.49854077e-02 5.07636845e-01 1.67736188e-01 6.03029854e-04
      8.80144462e-02 9.38228220e-02 8.09047604e-04 2.65913492e-04
      1.41111434e-01</_>
    <_>
      3.60510051e-01 0. 0. 1.06172927e-01 3.60510051e-01 1.72741055e-01
      0. 0. 3.52329195e-01 6.14566617e-02 8.32528993e-02 1.78960517e-01
      2.01923013e-01 3.96121107e-02 3.45998764e-04 8.21193457e-02
      2.35925391e-01 5.27545214e-01 0. 0. 2.35925391e-01 0. 0. 0.
      5.86283743e-01 4.02949713e-02 1.63987428e-02 4.72872742e-02
      2.32594758e-01 1.27233509e-02 2.96096932e-02 3.48073244e-02</_>
    <_>
      2.80934304e-01 0. 2.23020822e-01 2.01799616e-01 7.83433244e-02 0.
      0. 2.15899929e-01 2.72378445e-01 2.93239187e-02 5.91124445e-02
      2.23273367e-01 2.35568494e-01 4.68193600e-03 2.95261871e-02
      1.46134987e-01 1.55990332e-01 2.35965431e-01 0. 1.86390743e-01
      8.15843605e-03 2.26045877e-01 1.03363954e-03 1.86413661e-01
      5.34079969e-01 1.63127705e-02 4.86502349e-02 1.13918059e-01
      1.27252012e-01 2.16016459e-04 3.22256796e-02 1.27345130e-01</_>
    <_>
      4.32635874e-01 0. 0. 0. 5.10392904e-01 5.69060743e-02 0. 0.
      2.06887528e-01 1.75586194e-01 1.30017027e-01 1.97173700e-01
      2.16731146e-01 2.27200985e-02 6.99008233e-04 5.01851179e-02
      6.32825941e-02 1.71383351e-01 5.61828688e-02 9.46360901e-02
      5.38004935e-01 5.35928607e-02 1.99699122e-03 2.09198520e-02
      2.79625893e-01 2.38978729e-01 1.68778345e-01 4.63063344e-02
      1.53744996e-01 1.56344064e-02 1.12431496e-02 8.56880173e-02</_>
    <_>
      4.88818645e-01 0. 0. 0. 1.31405264e-01 0. 0. 3.79772246e-01
      3.69680405e-01 4.00457382e-02 0. 1.09724797e-01 3.44542503e-01
      3.20322104e-02 7.50929713e-02 2.88810879e-02 0. 0. 0. 0. 0. 0. 0.
      0. 9.07977760e-01 0. 2.19392832e-02 1.90478837e-04 6.02346954e-05
      1.89763177e-02 3.90243047e-04 5.04654981e-02</_>
    <_>
      1.27180874e-01 7.13866502e-02 3.40837598e-01 1.03184067e-01
      3.44312519e-01 0. 0. 1.30977919e-02 4.40335929e-01 0.
      1.30605433e-04 4.93259020e-02 3.92949611e-01 6.26950264e-02 0.
      5.45627102e-02 9.99488235e-01 0. 0. 0. 0. 0. 0. 0. 7.71489441e-01
      1.73117649e-02 0. 1.41144851e-02 1.49850637e-01 0. 1.95583794e-02
      2.76751388e-02</_>
    <_>
      3.55763994e-02 6.16810858e-01 5.83462883e-03 0. 1.85656752e-02 0.
      7.52999354e-03 3.15677136e-01 2.14583904e-01 1.93867356e-01
      2.29832545e-01 1.34613827e-01 7.51965195e-02 7.96646103e-02
      4.20738906e-02 3.01671997e-02 4.11697388e-01 0. 0. 0.
      8.09975490e-02 0. 3.18807393e-01 1.88494444e-01 4.83887047e-01
      6.06142804e-02 4.72204648e-02 1.61849894e-02 2.02193297e-02
      9.58962645e-03 7.74621367e-02 2.84821987e-01</_>
    <_>
      0. 0. 0. 0. 0. 0. 0. 0. 7.22359121e-02 2.35296264e-01
      3.40894729e-01 1.13226995e-01 1.47990957e-01 2.17361245e-02
      2.21610367e-02 4.64578196e-02 9.09447730e-01 0. 9.87210311e-03 0.
      3.83324027e-02 0. 4.23407815e-02 0. 2.13698640e-01 4.18267548e-01
      2.30043754e-01 1.55027704e-02 3.15804891e-02 1.82184755e-04
      9.30780952e-04 8.97937045e-02</_>
    <_>
      1.12666592e-01 1.91476241e-01 1.74450427e-01 1.59915850e-01
      2.28767350e-01 3.82678583e-02 6.83659166e-02 2.60894839e-02
      4.03678715e-01 0. 9.16996151e-02 1.10754929e-01 6.67315796e-02
      4.59743552e-02 1.08397717e-03 2.80076474e-01 3.27364862e-01
      2.31461134e-02 4.92195860e-02 1.18252881e-01 3.00250173e-01
      2.56355871e-02 2.25852001e-02 1.33545384e-01 2.96294898e-01
      4.70194779e-02 2.89591663e-02 3.42879519e-02 3.72310311e-01
      7.24207237e-02 9.77736935e-02 5.09335883e-02</_>
    <_>
      9.99987900e-01 0. 0. 0. 0. 0. 0. 0. 1.40098497e-01 2.22187683e-01
      2.00838730e-01 1.45036668e-01 2.02166274e-01 3.66012640e-02
      1.04609528e-03 5.20246178e-02 1.47990793e-01 1.08718835e-01
      1.87458992e-01 2.75844224e-02 4.07857567e-01 3.33391093e-02
      3.32830772e-02 5.37669212e-02 2.32792005e-01 4.00550842e-01
      1.41092241e-01 2.97936425e-02 1.24025911e-01 2.02032663e-02
      8.33452446e-04 5.07084727e-02</_>
    <_>
      1.10181548e-01 1.57190233e-01 2.15430707e-01 2.12470174e-01
      1.66462377e-01 0. 1.38264403e-01 0. 2.74747878e-01 1.27124757e-01
      1.79607227e-01 1.07466601e-01 1.73024252e-01 2.41743810e-02
      4.69716382e-04 1.13384977e-01 1.00932814e-01 0. 8.10788274e-02
      2.74549335e-01 4.73537385e-01 0. 4.13727649e-02 2.85285767e-02
      2.28202969e-01 2.42367476e-01 1.98897384e-02 1.42712435e-02
      3.22476804e-01 0. 1.61362607e-02 1.56655371e-01</_>
    <_>
      3.31481636e-01 0. 0. 1.83302194e-01 4.85139012e-01 0. 0. 0.
      1.52442455e-01 1.16520248e-01 0. 2.32295975e-01 2.46755525e-01
      9.69181061e-02 5.52578531e-02 9.98094678e-02 6.45466615e-03 0. 0.
      2.04114453e-03 6.64218068e-01 0. 0. 3.27284485e-01 2.78199494e-01
      2.52333134e-01 3.71648110e-02 1.48574403e-02 2.39252597e-01
      1.85875446e-02 1.81829687e-02 1.41421854e-01</_>
    <_>
      1.08617872e-01 8.07389840e-02 1.46616831e-01 4.63835061e-01
      1.25679567e-01 8.08818964e-04 7.37022758e-02 0. 8.82732794e-02
      3.30428556e-02 1.42421335e-01 2.17502177e-01 4.41139042e-01
      3.36235426e-02 3.42158824e-02 9.78161953e-03 1.40164152e-01
      6.32693842e-02 9.72526520e-02 1.33858025e-01 3.50815028e-01
      9.59594399e-02 6.70270547e-02 5.16539924e-02 2.71418065e-01
      2.10273918e-02 1.80447381e-02 1.71480313e-01 3.12486291e-01
      5.25352210e-02 2.10818090e-02 1.31926000e-01</_>
    <_>
      1.24852069e-01 2.55500257e-01 2.48491913e-01 1.19746938e-01
      2.51406491e-01 0. 0. 0. 9.76548344e-02 0. 2.07630426e-01
      1.28758848e-01 4.52726513e-01 0. 4.47615720e-02 6.84674829e-02
      1.98099628e-01 1.22945793e-01 6.12273207e-03 2.44284496e-01
      6.66860864e-02 1.27407849e-01 1.21992141e-01 1.12460166e-01
      3.24820548e-01 0. 5.75074442e-02 1.74220830e-01 3.38770360e-01
      4.63892147e-02 5.38408131e-05 5.82376607e-02</_>
    <_>
      8.30210149e-02 1.49854079e-01 2.21604839e-01 1.51853651e-01
      2.84248590e-01 7.17848688e-02 6.61773316e-04 3.69705707e-02
      1.08325176e-01 1.10654429e-01 1.40459374e-01 1.93234295e-01
      3.01753491e-01 2.75276583e-02 2.75252908e-02 9.05200616e-02
      5.49781322e-02 8.85198191e-02 4.18674946e-02 1.32176444e-01
      6.44507766e-01 0. 0. 3.79499234e-02 1.61962539e-01 2.04620376e-01
      3.17253023e-02 3.83856632e-02 4.14301574e-01 3.16463858e-02 0.
      1.17358051e-01</_>
    <_>
      9.99360383e-01 0. 0. 0. 0. 0. 0. 0. 2.49210253e-01 1.05975382e-01
      1.53466150e-01 1.67549908e-01 2.68440723e-01 0. 5.53571880e-02 0.
      9.99634445e-01 0. 0. 0. 0. 0. 0. 0. 4.12204236e-01 2.49831099e-02
      3.44349481e-02 7.04301670e-02 3.39452893e-01 1.29222386e-02
      3.83145288e-02 6.72578067e-02</_>
    <_>
      9.99634445e-01 0. 0. 0. 0. 0. 0. 0. 2.70317346e-01 6.66946694e-02
      2.45505437e-01 7.34272897e-02 2.18254209e-01 3.24072391e-02
      5.30755788e-04 9.28627774e-02 1.05821930e-01 8.19795504e-02
      1.75179751e-03 2.41979912e-01 4.88419652e-01 0. 4.15249541e-02
      3.85211557e-02 2.77871579e-01 3.03603917e-01 1.76739600e-02
      9.49474126e-02 1.99318618e-01 1.94325298e-02 1.03524234e-03
      8.61165822e-02</_>
    <_>
      0. 0. 0. 0. 0. 0. 0. 0. 2.63499051e-01 2.61874527e-01
      1.14623271e-01 7.56920427e-02 1.69054627e-01 2.98365969e-02
      3.72517891e-02 4.81678322e-02 6.54908240e-01 3.11559951e-03
      3.94095620e-03 0. 3.33007902e-01 5.02375327e-03 0. 0.
      3.31285536e-01 3.28785747e-01 1.46152109e-01 2.50324737e-02
      5.47284707e-02 1.13850991e-04 1.76861584e-02 9.62155089e-02</_>
    <_>
      1.47148609e-01 2.09014922e-01 2.69508719e-01 6.22231467e-03
      1.41103938e-01 2.72062817e-03 2.24278957e-01 0. 1.36361703e-01
      1.71896502e-01 2.82917559e-01 1.51486859e-01 2.24416360e-01
      1.35943387e-03 9.44569940e-04 3.06168627e-02 2.87753344e-01
      1.88755631e-01 1.67344108e-01 1.73589829e-02 1.92193940e-01 0. 0.
      1.46592453e-01 2.29462340e-01 3.82268906e-01 2.16012701e-01
      3.40269208e-02 8.19307715e-02 0. 7.72630272e-04 5.55255711e-02</_>
    <_>
      1.27501404e-02 1.46516129e-01 3.34349096e-01 2.52316713e-01
      2.54066706e-01 0. 0. 0. 8.32819864e-02 1.67997122e-01
      2.32147813e-01 2.25667149e-01 2.52961218e-01 1.86169557e-02
      1.82174183e-02 1.11015036e-03 1.89509705e-01 2.41549283e-01
      3.04823667e-01 8.79677683e-02 1.09704696e-01 6.63892599e-04
      4.13485505e-02 2.44320557e-02 1.76879376e-01 4.91976649e-01
      2.06305727e-01 4.25430052e-02 3.16829458e-02 1.68426346e-03
      1.98807102e-03 4.69398461e-02</_>
    <_>
      1.87819928e-01 2.90959150e-01 2.05933988e-01 1.24696508e-01
      1.88247353e-01 0. 2.34248373e-03 0. 2.97069043e-01 8.69529620e-02
      1.41755223e-01 1.23981252e-01 2.76909888e-01 2.75273696e-02
      6.44248619e-04 4.51598093e-02 5.78480847e-02 0. 3.09216291e-01
      2.35131159e-01 2.67964363e-01 0. 1.29838929e-01 0. 7.82212019e-01
      0. 2.07117591e-02 2.89402287e-02 1.28626421e-01 1.03444513e-03
      1.83984153e-02 2.00765599e-02</_>
    <_>
      0. 0. 0. 0. 0. 0. 0. 0. 1.50492430e-01 1.24526098e-01
      2.87072390e-01 1.20710671e-01 1.37811899e-01 1.78344194e-02
      1.25404957e-04 1.61426544e-01 1.03194617e-01 1.62462562e-01 0.
      1.66237518e-01 5.67089319e-01 0. 0. 1.01533288e-03 2.50119805e-01
      2.46189341e-01 8.97953361e-02 4.53519039e-02 2.62612373e-01
      1.23717524e-02 1.32604614e-02 8.02989528e-02</_>
    <_>
      0. 0. 0. 0. 0. 0. 0. 0. 2.31675878e-01 2.81892627e-01
      1.35507256e-01 9.37145427e-02 2.01356590e-01 2.59206817e-02 0.
      2.99322344e-02 1.34938419e-01 9.33026075e-02 1.45499155e-01
      2.21745953e-01 3.81746382e-01 6.41592487e-04 4.05778701e-04
      2.17197351e-02 2.06613958e-01 2.92915881e-01 1.76589787e-01
      4.00519297e-02 1.52472958e-01 1.82674713e-02 2.34421045e-02
      8.96457508e-02</_>
    <_>
      1.34489030e-01 0. 0. 1.28270403e-01 6.20417058e-01 0. 0.
      1.16822228e-01 3.90400916e-01 1.04428828e-01 9.04318318e-02
      7.12196454e-02 5.94006851e-02 6.61782804e-04 9.29816067e-02
      1.90474331e-01 1.28535777e-01 0. 1.36276886e-01 2.18915507e-01
      4.12746489e-01 0. 0. 1.03524305e-01 6.28788054e-01 0.
      3.57740931e-02 2.43532215e-03 2.45997339e-01 5.07988259e-02
      1.57312732e-02 2.04749797e-02</_>
    <_>
      4.79388177e-01 0. 0. 1.64242998e-01 1.88007817e-01 1.48889059e-02
      4.12155176e-03 1.49345830e-01 1.75810099e-01 2.27252930e-01
      1.48740098e-01 9.04397964e-02 2.54643351e-01 3.97605225e-02
      1.60494912e-02 4.73034903e-02 1.78734809e-01 2.73823798e-01
      7.86117986e-02 8.53863880e-02 3.44418466e-01 7.68826052e-04
      2.34806607e-03 3.59075330e-02 2.53059089e-01 3.15814495e-01
      1.68554366e-01 3.48103121e-02 9.05298069e-02 2.44416315e-02
      6.84286992e-04 1.12105832e-01</_>
    <_>
      1.56683803e-01 0. 4.26462501e-01 2.02292696e-01 1.09113492e-01 0.
      0. 1.05446979e-01 3.63889068e-01 1.24849342e-01 1.84735104e-01
      4.39070091e-02 1.63213521e-01 2.79911198e-02 9.32739349e-04
      9.04818624e-02 9.30586234e-02 4.60758470e-02 4.30603437e-02
      1.27797708e-01 5.78422308e-01 0. 4.60866652e-02 6.54981509e-02
      4.13933605e-01 0. 2.87437625e-02 3.23933293e-03 4.79926854e-01
      1.32537223e-02 1.36302952e-02 4.72723022e-02</_>
    <_>
      4.10137355e-01 0. 1.89245135e-01 1.35176986e-01 2.61168599e-01
      4.27056756e-03 0. 0. 1.20374195e-01 1.48895666e-01 2.25127980e-01
      1.39253184e-01 2.54616737e-01 0. 3.32697183e-02 7.84622654e-02
      1.72843531e-01 0. 5.16051613e-02 1.03171403e-03 6.86169207e-01
      8.80639255e-02 2.86146009e-04 0. 2.14964241e-01 1.50321379e-01
      3.33393104e-02 6.19132519e-02 4.27054316e-01 8.00594571e-04
      3.44652496e-02 7.71415681e-02</_>
    <_>
      9.99360383e-01 0. 0. 0. 0. 0. 0. 0. 7.53442422e-02 1.35032341e-01
      2.45498985e-01 2.24607646e-01 2.24642038e-01 0. 1.88461114e-02
      7.60284588e-02 9.58340108e-01 0. 0. 0. 1.26031041e-02 0. 0.
      2.90487185e-02 2.30075687e-01 3.98838907e-01 1.93386555e-01
      6.24379739e-02 5.44202141e-02 4.20670520e-04 1.21695874e-03
      5.92029132e-02</_>
    <_>
      7.16858059e-02 2.68720508e-01 1.76477984e-01 6.47678897e-02
      2.25676596e-01 2.10612593e-03 2.49722367e-03 1.88067168e-01
      5.33941090e-01 7.18681589e-02 1.18226394e-01 8.44358429e-02
      6.16380870e-02 0. 7.32002407e-02 5.66898957e-02 3.40362079e-02
      3.50017548e-01 3.14390622e-02 1.77923262e-01 6.76392987e-02 0. 0.
      3.38940650e-01 5.46725392e-01 3.51895206e-02 6.40392583e-03
      5.13256080e-02 1.29442066e-01 1.70449503e-02 3.37383077e-02
      1.80130079e-01</_>
    <_>
      7.77556598e-01 0. 0. 0. 2.22159028e-01 0. 0. 0. 1.77224278e-01
      2.31748343e-01 2.36351088e-01 1.15133941e-01 1.23203896e-01
      1.84022579e-02 5.23729483e-04 9.74123180e-02 0. 0. 0. 0. 0. 0. 0.
      0. 3.06722909e-01 3.90538692e-01 1.19152583e-01 6.86126354e-04
      8.75163078e-02 0. 2.30569439e-03 9.30775404e-02</_>
    <_>
      1.41730130e-01 7.37124264e-01 2.95724533e-02 2.59367581e-02
      6.56153858e-02 0. 0. 0. 2.02833712e-01 1.14214599e-01
      2.19082281e-01 1.06156692e-01 2.88715184e-01 3.20384465e-02
      3.07350623e-04 3.66514474e-02 7.77330816e-01 0. 0. 1.47662595e-01
      4.86089028e-02 0. 0. 2.63917502e-02 5.12547493e-01 1.48496702e-02
      2.90469546e-02 1.44985989e-01 1.85788587e-01 1.46865770e-02
      7.65619217e-04 9.73289832e-02</_>
    <_>
      4.34610769e-02 0. 0. 0. 5.47782220e-02 0. 3.78235355e-02
      8.63928616e-01 1.01517931e-01 1.93021238e-01 2.58560151e-01
      7.93572292e-02 2.94214129e-01 0. 4.01963331e-02 3.31326313e-02
      6.12040699e-01 1.32933743e-02 3.39917131e-02 0. 3.22230220e-01 0.
      1.84345935e-02 0. 4.04830962e-01 2.75564998e-01 1.94699150e-02
      4.24376652e-02 4.78242971e-02 1.56964026e-02 1.69030372e-02
      1.77272603e-01</_>
    <_>
      0. 0. 0. 0. 0. 0. 0. 0. 1.14982791e-01 1.47222787e-01
      2.28344679e-01 2.12890938e-01 2.23448738e-01 0. 2.02017929e-02
      5.29081188e-02 8.04481190e-03 0. 2.73204654e-01 0. 7.18749285e-01
      0. 0. 0. 3.20141345e-01 3.19155931e-01 9.68853757e-02
      8.79036486e-02 9.77501869e-02 1.61789823e-04 1.21765798e-02
      6.58250079e-02</_>
    <_>
      9.99983907e-01 0. 0. 0. 0. 0. 0. 0. 3.61876249e-01 0.
      1.63318217e-01 1.23040527e-01 1.45233408e-01 5.65189496e-02
      3.80654708e-02 1.11946955e-01 0. 0. 0. 0. 0. 0. 0. 0.
      8.62666070e-01 3.59438732e-02 2.03299355e-02 3.14710923e-02
      2.94023263e-03 0. 2.21200604e-02 2.45285835e-02</_>
    <_>
      0. 0. 0. 0. 0. 0. 0. 0. 8.03952441e-02 2.85452187e-01
      2.33712465e-01 1.32087275e-01 1.55838385e-01 0. 2.00882103e-04
      1.12313189e-01 3.92162472e-01 6.07835233e-01 0. 0. 0. 0. 0. 0.
      3.11906248e-01 3.51061106e-01 1.50019571e-01 8.54664575e-03
      6.78173453e-02 1.17189542e-04 0. 1.10531762e-01</_>
    <_>
      5.56321442e-01 0. 0. 0. 1.73308863e-03 0. 0. 4.41941023e-01
      4.15010661e-01 2.92537194e-02 0. 4.15351577e-02 3.58829319e-01
      7.08928183e-02 8.44781250e-02 0. 6.86546206e-01 0. 0. 0.
      6.80519221e-03 7.60843605e-03 0. 2.99037278e-01 4.61895764e-01
      4.11533341e-02 2.46832389e-02 1.37886137e-01 2.58506835e-01
      3.96150872e-02 2.57415734e-02 1.05179148e-02</_>
    <_>
      0. 0. 0. 0. 0. 0. 0. 0. 1.28105253e-01 5.35922833e-02
      1.25119820e-01 1.36982441e-01 4.27185804e-01 0. 8.24590847e-02
      4.65550683e-02 6.52859211e-02 5.16626402e-04 1.62276879e-01
      1.82235330e-01 5.29554129e-01 0. 2.20336556e-03 5.79271615e-02
      1.58851057e-01 2.19836265e-01 1.22941911e-01 6.75275028e-02
      3.40022981e-01 2.22039627e-04 1.40771987e-02 7.65209422e-02</_>
    <_>
      0. 0. 0. 0. 0. 0. 0. 0. 1.12625629e-01 0. 1.66875660e-01
      2.18757719e-01 3.16198260e-01 8.46717060e-02 7.91129619e-02
      2.17577592e-02 9.78256404e-01 0. 0. 0. 2.17356496e-02 0. 0. 0.
      1.50232151e-01 3.89407665e-01 2.92608708e-01 2.99908109e-02
      6.25801608e-02 5.41964583e-02 7.18848256e-04 2.02650763e-02</_>
    <_>
      0. 0. 0. 0. 0. 0. 0. 0. 2.35328272e-01 1.14811637e-01
      2.02813298e-01 1.48600057e-01 1.33981630e-01 0. 2.99837682e-02
      1.34481043e-01 0. 0. 0. 0. 0. 0. 0. 0. 4.42024618e-01
